FANN_FLO_2.1
num_layers=3
learning_rate=0.700000
connection_rate=1.000000
network_type=0
learning_momentum=0.000000
training_algorithm=2
train_error_function=1
train_stop_function=1
cascade_output_change_fraction=0.010000
quickprop_decay=-0.000100
quickprop_mu=1.750000
rprop_increase_factor=1.200000
rprop_decrease_factor=0.500000
rprop_delta_min=0.000000
rprop_delta_max=50.000000
rprop_delta_zero=0.100000
cascade_output_stagnation_epochs=12
cascade_candidate_change_fraction=0.010000
cascade_candidate_stagnation_epochs=12
cascade_max_out_epochs=150
cascade_min_out_epochs=50
cascade_max_cand_epochs=150
cascade_min_cand_epochs=50
cascade_num_candidate_groups=2
bit_fail_limit=9.99999977648258210000e-003
cascade_candidate_limit=1.00000000000000000000e+003
cascade_weight_multiplier=4.00000005960464480000e-001
cascade_activation_functions_count=10
cascade_activation_functions=3 5 7 8 10 11 14 15 16 17 
cascade_activation_steepnesses_count=4
cascade_activation_steepnesses=2.50000000000000000000e-001 5.00000000000000000000e-001 7.50000000000000000000e-001 1.00000000000000000000e+000 
layer_sizes=65 116 13 
scale_included=0
neurons (num_inputs, activation_function, activation_steepness)=(0, 0, 0.00000000000000000000e+000) (0, 0, 0.00000000000000000000e+000) (0, 0, 0.00000000000000000000e+000) (0, 0, 0.00000000000000000000e+000) (0, 0, 0.00000000000000000000e+000) (0, 0, 0.00000000000000000000e+000) (0, 0, 0.00000000000000000000e+000) (0, 0, 0.00000000000000000000e+000) (0, 0, 0.00000000000000000000e+000) (0, 0, 0.00000000000000000000e+000) (0, 0, 0.00000000000000000000e+000) (0, 0, 0.00000000000000000000e+000) (0, 0, 0.00000000000000000000e+000) (0, 0, 0.00000000000000000000e+000) (0, 0, 0.00000000000000000000e+000) (0, 0, 0.00000000000000000000e+000) (0, 0, 0.00000000000000000000e+000) (0, 0, 0.00000000000000000000e+000) (0, 0, 0.00000000000000000000e+000) (0, 0, 0.00000000000000000000e+000) (0, 0, 0.00000000000000000000e+000) (0, 0, 0.00000000000000000000e+000) (0, 0, 0.00000000000000000000e+000) (0, 0, 0.00000000000000000000e+000) (0, 0, 0.00000000000000000000e+000) (0, 0, 0.00000000000000000000e+000) (0, 0, 0.00000000000000000000e+000) (0, 0, 0.00000000000000000000e+000) (0, 0, 0.00000000000000000000e+000) (0, 0, 0.00000000000000000000e+000) (0, 0, 0.00000000000000000000e+000) (0, 0, 0.00000000000000000000e+000) (0, 0, 0.00000000000000000000e+000) (0, 0, 0.00000000000000000000e+000) (0, 0, 0.00000000000000000000e+000) (0, 0, 0.00000000000000000000e+000) (0, 0, 0.00000000000000000000e+000) (0, 0, 0.00000000000000000000e+000) (0, 0, 0.00000000000000000000e+000) (0, 0, 0.00000000000000000000e+000) (0, 0, 0.00000000000000000000e+000) (0, 0, 0.00000000000000000000e+000) (0, 0, 0.00000000000000000000e+000) (0, 0, 0.00000000000000000000e+000) (0, 0, 0.00000000000000000000e+000) (0, 0, 0.00000000000000000000e+000) (0, 0, 0.00000000000000000000e+000) (0, 0, 0.00000000000000000000e+000) (0, 0, 0.00000000000000000000e+000) (0, 0, 0.00000000000000000000e+000) (0, 0, 0.00000000000000000000e+000) (0, 0, 0.00000000000000000000e+000) (0, 0, 0.00000000000000000000e+000) (0, 0, 0.00000000000000000000e+000) (0, 0, 0.00000000000000000000e+000) (0, 0, 0.00000000000000000000e+000) (0, 0, 0.00000000000000000000e+000) (0, 0, 0.00000000000000000000e+000) (0, 0, 0.00000000000000000000e+000) (0, 0, 0.00000000000000000000e+000) (0, 0, 0.00000000000000000000e+000) (0, 0, 0.00000000000000000000e+000) (0, 0, 0.00000000000000000000e+000) (0, 0, 0.00000000000000000000e+000) (0, 0, 0.00000000000000000000e+000) (65, 5, 1.00000000000000000000e+000) (65, 5, 1.00000000000000000000e+000) (65, 5, 1.00000000000000000000e+000) (65, 5, 1.00000000000000000000e+000) (65, 5, 1.00000000000000000000e+000) (65, 5, 1.00000000000000000000e+000) (65, 5, 1.00000000000000000000e+000) (65, 5, 1.00000000000000000000e+000) (65, 5, 1.00000000000000000000e+000) (65, 5, 1.00000000000000000000e+000) (65, 5, 1.00000000000000000000e+000) (65, 5, 1.00000000000000000000e+000) (65, 5, 1.00000000000000000000e+000) (65, 5, 1.00000000000000000000e+000) (65, 5, 1.00000000000000000000e+000) (65, 5, 1.00000000000000000000e+000) (65, 5, 1.00000000000000000000e+000) (65, 5, 1.00000000000000000000e+000) (65, 5, 1.00000000000000000000e+000) (65, 5, 1.00000000000000000000e+000) (65, 5, 1.00000000000000000000e+000) (65, 5, 1.00000000000000000000e+000) (65, 5, 1.00000000000000000000e+000) (65, 5, 1.00000000000000000000e+000) (65, 5, 1.00000000000000000000e+000) (65, 5, 1.00000000000000000000e+000) (65, 5, 1.00000000000000000000e+000) (65, 5, 1.00000000000000000000e+000) (65, 5, 1.00000000000000000000e+000) (65, 5, 1.00000000000000000000e+000) (65, 5, 1.00000000000000000000e+000) (65, 5, 1.00000000000000000000e+000) (65, 5, 1.00000000000000000000e+000) (65, 5, 1.00000000000000000000e+000) (65, 5, 1.00000000000000000000e+000) (65, 5, 1.00000000000000000000e+000) (65, 5, 1.00000000000000000000e+000) (65, 5, 1.00000000000000000000e+000) (65, 5, 1.00000000000000000000e+000) (65, 5, 1.00000000000000000000e+000) (65, 5, 1.00000000000000000000e+000) (65, 5, 1.00000000000000000000e+000) (65, 5, 1.00000000000000000000e+000) (65, 5, 1.00000000000000000000e+000) (65, 5, 1.00000000000000000000e+000) (65, 5, 1.00000000000000000000e+000) (65, 5, 1.00000000000000000000e+000) (65, 5, 1.00000000000000000000e+000) (65, 5, 1.00000000000000000000e+000) (65, 5, 1.00000000000000000000e+000) (65, 5, 1.00000000000000000000e+000) (65, 5, 1.00000000000000000000e+000) (65, 5, 1.00000000000000000000e+000) (65, 5, 1.00000000000000000000e+000) (65, 5, 1.00000000000000000000e+000) (65, 5, 1.00000000000000000000e+000) (65, 5, 1.00000000000000000000e+000) (65, 5, 1.00000000000000000000e+000) (65, 5, 1.00000000000000000000e+000) (65, 5, 1.00000000000000000000e+000) (65, 5, 1.00000000000000000000e+000) (65, 5, 1.00000000000000000000e+000) (65, 5, 1.00000000000000000000e+000) (65, 5, 1.00000000000000000000e+000) (65, 5, 1.00000000000000000000e+000) (65, 5, 1.00000000000000000000e+000) (65, 5, 1.00000000000000000000e+000) (65, 5, 1.00000000000000000000e+000) (65, 5, 1.00000000000000000000e+000) (65, 5, 1.00000000000000000000e+000) (65, 5, 1.00000000000000000000e+000) (65, 5, 1.00000000000000000000e+000) (65, 5, 1.00000000000000000000e+000) (65, 5, 1.00000000000000000000e+000) (65, 5, 1.00000000000000000000e+000) (65, 5, 1.00000000000000000000e+000) (65, 5, 1.00000000000000000000e+000) (65, 5, 1.00000000000000000000e+000) (65, 5, 1.00000000000000000000e+000) (65, 5, 1.00000000000000000000e+000) (65, 5, 1.00000000000000000000e+000) (65, 5, 1.00000000000000000000e+000) (65, 5, 1.00000000000000000000e+000) (65, 5, 1.00000000000000000000e+000) (65, 5, 1.00000000000000000000e+000) (65, 5, 1.00000000000000000000e+000) (65, 5, 1.00000000000000000000e+000) (65, 5, 1.00000000000000000000e+000) (65, 5, 1.00000000000000000000e+000) (65, 5, 1.00000000000000000000e+000) (65, 5, 1.00000000000000000000e+000) (65, 5, 1.00000000000000000000e+000) (65, 5, 1.00000000000000000000e+000) (65, 5, 1.00000000000000000000e+000) (65, 5, 1.00000000000000000000e+000) (65, 5, 1.00000000000000000000e+000) (65, 5, 1.00000000000000000000e+000) (65, 5, 1.00000000000000000000e+000) (65, 5, 1.00000000000000000000e+000) (65, 5, 1.00000000000000000000e+000) (65, 5, 1.00000000000000000000e+000) (65, 5, 1.00000000000000000000e+000) (65, 5, 1.00000000000000000000e+000) (65, 5, 1.00000000000000000000e+000) (65, 5, 1.00000000000000000000e+000) (65, 5, 1.00000000000000000000e+000) (65, 5, 1.00000000000000000000e+000) (65, 5, 1.00000000000000000000e+000) (65, 5, 1.00000000000000000000e+000) (65, 5, 1.00000000000000000000e+000) (65, 5, 1.00000000000000000000e+000) (65, 5, 1.00000000000000000000e+000) (65, 5, 1.00000000000000000000e+000) (65, 5, 1.00000000000000000000e+000) (65, 5, 1.00000000000000000000e+000) (0, 5, 1.00000000000000000000e+000) (116, 5, 1.00000000000000000000e+000) (116, 5, 1.00000000000000000000e+000) (116, 5, 1.00000000000000000000e+000) (116, 5, 1.00000000000000000000e+000) (116, 5, 1.00000000000000000000e+000) (116, 5, 1.00000000000000000000e+000) (116, 5, 1.00000000000000000000e+000) (116, 5, 1.00000000000000000000e+000) (116, 5, 1.00000000000000000000e+000) (116, 5, 1.00000000000000000000e+000) (116, 5, 1.00000000000000000000e+000) (116, 5, 1.00000000000000000000e+000) (0, 5, 1.00000000000000000000e+000) 
connections (connected_to_neuron, weight)=(0, 2.95922756195068360000e+000) (1, 1.50000000000000000000e+003) (2, 3.37196612358093260000e+000) (3, 1.50000000000000000000e+003) (4, -1.15665299817919730000e-002) (5, 1.50000000000000000000e+003) (6, -5.47860525548458100000e-002) (7, 1.50000000000000000000e+003) (8, 1.50000000000000000000e+003) (9, -1.18355655670166020000e+000) (10, 1.50000000000000000000e+003) (11, 1.06552910804748540000e+000) (12, 1.50000000000000000000e+003) (13, 2.25174450874328610000e+000) (14, 1.50000000000000000000e+003) (15, 4.13670015335083010000e+000) (16, 9.07100811600685120000e-002) (17, 1.50000000000000000000e+003) (18, 2.03706336021423340000e+000) (19, 1.50000000000000000000e+003) (20, 2.29703092575073240000e+000) (21, 1.50000000000000000000e+003) (22, -4.92748498916625980000e-001) (23, 1.50000000000000000000e+003) (24, 1.50000000000000000000e+003) (25, 5.25053262710571290000e-001) (26, 1.50000000000000000000e+003) (27, 1.88435006141662600000e+000) (28, 1.50000000000000000000e+003) (29, 1.33492434024810790000e+000) (30, 1.50000000000000000000e+003) (31, 2.71099734306335450000e+000) (32, 6.46859586238861080000e-001) (33, 1.50000000000000000000e+003) (34, 1.26335716247558590000e+000) (35, 1.50000000000000000000e+003) (36, 2.20973992347717290000e+000) (37, 1.50000000000000000000e+003) (38, 1.52430140972137450000e+000) (39, 1.50000000000000000000e+003) (40, 1.50000000000000000000e+003) (41, -6.96247696876525880000e-001) (42, 1.50000000000000000000e+003) (43, 2.16471719741821290000e+000) (44, 1.50000000000000000000e+003) (45, 2.35442590713500980000e+000) (46, 1.50000000000000000000e+003) (47, 3.45553696155548100000e-001) (48, 4.40351963043212890000e-001) (49, 1.50000000000000000000e+003) (50, 1.96821856498718260000e+000) (51, 1.50000000000000000000e+003) (52, 9.84305799007415770000e-001) (53, 1.50000000000000000000e+003) (54, 1.00255048274993900000e+000) (55, 1.50000000000000000000e+003) (56, 1.50000000000000000000e+003) (57, 8.15640166401863100000e-002) (58, 1.50000000000000000000e+003) (59, 2.54683911800384520000e-001) (60, 1.50000000000000000000e+003) (61, 2.73634403944015500000e-001) (62, 1.50000000000000000000e+003) (63, 7.04419732093811040000e-001) (64, 4.69215549528598790000e-002) (0, 1.40461301803588870000e+001) (1, 1.50000000000000000000e+003) (2, 1.26703763008117680000e+000) (3, 1.50000000000000000000e+003) (4, -2.06959772109985350000e+000) (5, 1.50000000000000000000e+003) (6, 1.57880365848541260000e+000) (7, 1.50000000000000000000e+003) (8, 1.50000000000000000000e+003) (9, -4.14034485816955570000e-001) (10, 1.50000000000000000000e+003) (11, -1.20248973369598390000e-001) (12, 1.50000000000000000000e+003) (13, 1.29539382457733150000e+000) (14, 1.50000000000000000000e+003) (15, 5.73736810684204100000e+000) (16, 1.19736433029174800000e+000) (17, 1.50000000000000000000e+003) (18, 1.59485018253326420000e+000) (19, 1.50000000000000000000e+003) (20, 1.48978388309478760000e+000) (21, 1.50000000000000000000e+003) (22, 3.02152931690216060000e-001) (23, 1.50000000000000000000e+003) (24, 1.50000000000000000000e+003) (25, 9.86945033073425290000e-001) (26, 1.50000000000000000000e+003) (27, 3.63567256927490230000e+000) (28, 1.50000000000000000000e+003) (29, 6.22184097766876220000e-001) (30, 1.50000000000000000000e+003) (31, 1.21398425102233890000e+000) (32, 1.15918111801147460000e+000) (33, 1.50000000000000000000e+003) (34, 2.07382965087890620000e+000) (35, 1.50000000000000000000e+003) (36, 1.30220222473144530000e+000) (37, 1.50000000000000000000e+003) (38, 1.69055855274200440000e+000) (39, 1.50000000000000000000e+003) (40, 1.50000000000000000000e+003) (41, 6.31683051586151120000e-001) (42, 1.50000000000000000000e+003) (43, -1.10179781913757320000e+000) (44, 1.50000000000000000000e+003) (45, 1.09303462505340580000e+000) (46, 1.50000000000000000000e+003) (47, 2.01219582557678220000e+000) (48, 1.41041696071624760000e+000) (49, 1.50000000000000000000e+003) (50, 1.20896017551422120000e+000) (51, 1.50000000000000000000e+003) (52, -7.67445683479309080000e-001) (53, 1.50000000000000000000e+003) (54, 5.05730807781219480000e-001) (55, 1.50000000000000000000e+003) (56, 1.50000000000000000000e+003) (57, 7.40580201148986820000e-001) (58, 1.50000000000000000000e+003) (59, 9.52840864658355710000e-001) (60, 1.50000000000000000000e+003) (61, 1.23237788677215580000e+000) (62, 1.50000000000000000000e+003) (63, 5.01136243343353270000e-001) (64, -4.52901273965835570000e-001) (0, 6.06112420558929440000e-001) (1, 1.50000000000000000000e+003) (2, 1.28074562549591060000e+000) (3, 1.50000000000000000000e+003) (4, 3.44867682456970210000e+000) (5, 1.50000000000000000000e+003) (6, 2.88359546661376950000e+000) (7, 1.50000000000000000000e+003) (8, 1.50000000000000000000e+003) (9, 6.35581493377685550000e-001) (10, 1.50000000000000000000e+003) (11, 2.90839719772338870000e+000) (12, 1.50000000000000000000e+003) (13, -9.12944078445434570000e-002) (14, 1.50000000000000000000e+003) (15, -2.67186522483825680000e-001) (16, 3.11816644668579100000e+000) (17, 1.50000000000000000000e+003) (18, 9.04896140098571780000e-001) (19, 1.50000000000000000000e+003) (20, 1.89374661445617680000e+000) (21, 1.50000000000000000000e+003) (22, -1.11547029018402100000e+000) (23, 1.50000000000000000000e+003) (24, 1.50000000000000000000e+003) (25, 2.33732748031616210000e+000) (26, 1.50000000000000000000e+003) (27, 5.54957807064056400000e-001) (28, 1.50000000000000000000e+003) (29, 6.90818190574646000000e-001) (30, 1.50000000000000000000e+003) (31, 9.47559595108032230000e-001) (32, 2.26269149780273440000e+000) (33, 1.50000000000000000000e+003) (34, -1.98275521397590640000e-001) (35, 1.50000000000000000000e+003) (36, 1.65441974997520450000e-001) (37, 1.50000000000000000000e+003) (38, -5.45802593231201170000e-001) (39, 1.50000000000000000000e+003) (40, 1.50000000000000000000e+003) (41, 1.99616873264312740000e+000) (42, 1.50000000000000000000e+003) (43, 2.59211516380310060000e+000) (44, 1.50000000000000000000e+003) (45, -8.90107601881027220000e-002) (46, 1.50000000000000000000e+003) (47, 2.23005115985870360000e-001) (48, 5.98352134227752690000e-001) (49, 1.50000000000000000000e+003) (50, 2.68603153526782990000e-002) (51, 1.50000000000000000000e+003) (52, 2.48539042472839360000e+000) (53, 1.50000000000000000000e+003) (54, 1.23801216483116150000e-001) (55, 1.50000000000000000000e+003) (56, 1.50000000000000000000e+003) (57, 2.30679318308830260000e-001) (58, 1.50000000000000000000e+003) (59, 2.37758636474609380000e+000) (60, 1.50000000000000000000e+003) (61, 4.84963059425354000000e-001) (62, 1.50000000000000000000e+003) (63, 2.29834389686584470000e+000) (64, -6.12442851066589360000e-001) (0, 3.08120727539062500000e+000) (1, 1.50000000000000000000e+003) (2, 2.34402823448181150000e+000) (3, 1.50000000000000000000e+003) (4, 1.97651159763336180000e+000) (5, 1.50000000000000000000e+003) (6, 2.19451165199279790000e+000) (7, 1.50000000000000000000e+003) (8, 1.50000000000000000000e+003) (9, 2.46207237243652340000e+000) (10, 1.50000000000000000000e+003) (11, 7.12571203708648680000e-001) (12, 1.50000000000000000000e+003) (13, 2.63157963752746580000e+000) (14, 1.50000000000000000000e+003) (15, 8.92187416553497310000e-001) (16, -2.03098908066749570000e-001) (17, 1.50000000000000000000e+003) (18, 2.03445053100585940000e+000) (19, 1.50000000000000000000e+003) (20, 1.17125570774078370000e+000) (21, 1.50000000000000000000e+003) (22, 1.88664448261260990000e+000) (23, 1.50000000000000000000e+003) (24, 1.50000000000000000000e+003) (25, 1.23198702931404110000e-001) (26, 1.50000000000000000000e+003) (27, 8.76247823238372800000e-001) (28, 1.50000000000000000000e+003) (29, 7.64955639839172360000e-001) (30, 1.50000000000000000000e+003) (31, 2.08677068352699280000e-001) (32, 9.95410919189453130000e-001) (33, 1.50000000000000000000e+003) (34, 2.02207016944885250000e+000) (35, 1.50000000000000000000e+003) (36, 8.20391952991485600000e-001) (37, 1.50000000000000000000e+003) (38, 8.43254745006561280000e-001) (39, 1.50000000000000000000e+003) (40, 1.50000000000000000000e+003) (41, 1.10146570205688480000e+000) (42, 1.50000000000000000000e+003) (43, 1.25514626502990720000e+000) (44, 1.50000000000000000000e+003) (45, 1.93694722652435300000e+000) (46, 1.50000000000000000000e+003) (47, 2.11665701866149900000e+000) (48, -1.57447438687086110000e-002) (49, 1.50000000000000000000e+003) (50, 1.01966035366058350000e+000) (51, 1.50000000000000000000e+003) (52, 1.64845788478851320000e+000) (53, 1.50000000000000000000e+003) (54, 2.40960144996643070000e+000) (55, 1.50000000000000000000e+003) (56, 1.50000000000000000000e+003) (57, 1.76633864641189580000e-001) (58, 1.50000000000000000000e+003) (59, 1.20966958999633790000e+000) (60, 1.50000000000000000000e+003) (61, 1.34060442447662350000e+000) (62, 1.50000000000000000000e+003) (63, 1.84421014785766600000e+000) (64, 3.82997363805770870000e-001) (0, 1.16354513168334960000e+000) (1, 1.50000000000000000000e+003) (2, 1.60357534885406490000e+000) (3, 1.50000000000000000000e+003) (4, -1.28072619438171390000e+000) (5, 1.50000000000000000000e+003) (6, -1.85642898082733150000e-001) (7, 1.50000000000000000000e+003) (8, 1.50000000000000000000e+003) (9, 1.45091935992240910000e-001) (10, 1.50000000000000000000e+003) (11, 1.50025463104248050000e+000) (12, 1.50000000000000000000e+003) (13, -2.23367422819137570000e-001) (14, 1.50000000000000000000e+003) (15, -1.89841642975807190000e-001) (16, 1.12074923515319820000e+000) (17, 1.50000000000000000000e+003) (18, -6.58167064189910890000e-001) (19, 1.50000000000000000000e+003) (20, 2.87863492965698240000e+000) (21, 1.50000000000000000000e+003) (22, 1.13658392429351810000e+000) (23, 1.50000000000000000000e+003) (24, 1.50000000000000000000e+003) (25, 2.70522451400756840000e+000) (26, 1.50000000000000000000e+003) (27, 6.47560417652130130000e-001) (28, 1.50000000000000000000e+003) (29, 2.24431681632995610000e+000) (30, 1.50000000000000000000e+003) (31, 2.58383607864379880000e+000) (32, -5.43170809745788570000e-001) (33, 1.50000000000000000000e+003) (34, -1.79558441042900090000e-001) (35, 1.50000000000000000000e+003) (36, 2.07135295867919920000e+000) (37, 1.50000000000000000000e+003) (38, 2.21791553497314450000e+000) (39, 1.50000000000000000000e+003) (40, 1.50000000000000000000e+003) (41, 2.35502552986145020000e+000) (42, 1.50000000000000000000e+003) (43, 2.49565982818603520000e+000) (44, 1.50000000000000000000e+003) (45, -9.57744196057319640000e-002) (46, 1.50000000000000000000e+003) (47, -3.49730908870697020000e-001) (48, 2.57561993598937990000e+000) (49, 1.50000000000000000000e+003) (50, 6.63265883922576900000e-002) (51, 1.50000000000000000000e+003) (52, 2.38559484481811520000e+000) (53, 1.50000000000000000000e+003) (54, 3.42955440282821660000e-001) (55, 1.50000000000000000000e+003) (56, 1.50000000000000000000e+003) (57, 2.43775153160095210000e+000) (58, 1.50000000000000000000e+003) (59, 6.99170157313346860000e-002) (60, 1.50000000000000000000e+003) (61, 2.37660273909568790000e-001) (62, 1.50000000000000000000e+003) (63, 2.45234465599060060000e+000) (64, -4.11928862333297730000e-001) (0, 3.17905455827713010000e-001) (1, 1.50000000000000000000e+003) (2, 1.17777395248413090000e+000) (3, 1.50000000000000000000e+003) (4, 9.05493739992380140000e-003) (5, 1.50000000000000000000e+003) (6, 1.62649250030517580000e+000) (7, 1.50000000000000000000e+003) (8, 1.50000000000000000000e+003) (9, 5.24823725223541260000e-001) (10, 1.50000000000000000000e+003) (11, 1.26624333858489990000e+000) (12, 1.50000000000000000000e+003) (13, 2.81042993068695070000e-001) (14, 1.50000000000000000000e+003) (15, 8.35410404205322270000e+000) (16, 6.26218974590301510000e-001) (17, 1.50000000000000000000e+003) (18, 1.73084005713462830000e-001) (19, 1.50000000000000000000e+003) (20, 1.34269163012504580000e-001) (21, 1.50000000000000000000e+003) (22, 4.58946371078491210000e+000) (23, 1.50000000000000000000e+003) (24, 1.50000000000000000000e+003) (25, 2.01505333185195920000e-001) (26, 1.50000000000000000000e+003) (27, 2.67051911354064940000e+000) (28, 1.50000000000000000000e+003) (29, 1.79854130744934080000e+000) (30, 1.50000000000000000000e+003) (31, 3.66031265258789060000e+000) (32, 1.23967051506042480000e+000) (33, 1.50000000000000000000e+003) (34, 1.55806839466094970000e+000) (35, 1.50000000000000000000e+003) (36, 5.29010772705078130000e-001) (37, 1.50000000000000000000e+003) (38, 1.03269529342651370000e+000) (39, 1.50000000000000000000e+003) (40, 1.50000000000000000000e+003) (41, 1.31560444831848140000e+000) (42, 1.50000000000000000000e+003) (43, -8.92260313034057620000e-001) (44, 1.50000000000000000000e+003) (45, 1.66304123401641850000e+000) (46, 1.50000000000000000000e+003) (47, -1.21948998421430590000e-002) (48, 9.54686582088470460000e-001) (49, 1.50000000000000000000e+003) (50, 4.10653305053710940000e+000) (51, 1.50000000000000000000e+003) (52, 2.28440970182418820000e-001) (53, 1.50000000000000000000e+003) (54, 9.86479282379150390000e-001) (55, 1.50000000000000000000e+003) (56, 1.50000000000000000000e+003) (57, 6.65323376655578610000e-001) (58, 1.50000000000000000000e+003) (59, 1.93426775932312010000e+000) (60, 1.50000000000000000000e+003) (61, 6.36587560176849370000e-001) (62, 1.50000000000000000000e+003) (63, 2.95058631896972660000e+000) (64, 3.87052237987518310000e-001) (0, -7.55180269479751590000e-002) (1, 1.50000000000000000000e+003) (2, 2.38981819152832030000e+000) (3, 1.50000000000000000000e+003) (4, 1.28006577491760250000e+000) (5, 1.50000000000000000000e+003) (6, 8.22108387947082520000e-001) (7, 1.50000000000000000000e+003) (8, 1.50000000000000000000e+003) (9, -1.04327273368835450000e+000) (10, 1.50000000000000000000e+003) (11, -2.55588471889495850000e-001) (12, 1.50000000000000000000e+003) (13, 5.99636018276214600000e-001) (14, 1.50000000000000000000e+003) (15, 1.86354351043701170000e+000) (16, 4.36389112472534180000e+000) (17, 1.50000000000000000000e+003) (18, 1.38568997383117680000e+000) (19, 1.50000000000000000000e+003) (20, 1.90114223957061770000e+000) (21, 1.50000000000000000000e+003) (22, 1.22541022300720210000e+000) (23, 1.50000000000000000000e+003) (24, 1.50000000000000000000e+003) (25, 1.19918525218963620000e+000) (26, 1.50000000000000000000e+003) (27, 1.47407424449920650000e+000) (28, 1.50000000000000000000e+003) (29, 1.90359807014465330000e+000) (30, 1.50000000000000000000e+003) (31, -2.55459260940551760000e+000) (32, 2.12791991233825680000e+000) (33, 1.50000000000000000000e+003) (34, 2.36076736450195310000e+000) (35, 1.50000000000000000000e+003) (36, 8.65447819232940670000e-001) (37, 1.50000000000000000000e+003) (38, 6.43824040889739990000e-001) (39, 1.50000000000000000000e+003) (40, 1.50000000000000000000e+003) (41, -4.00586217641830440000e-001) (42, 1.50000000000000000000e+003) (43, 2.82626223564147950000e+000) (44, 1.50000000000000000000e+003) (45, 2.61340880393981930000e+000) (46, 1.50000000000000000000e+003) (47, 1.02422952651977540000e+000) (48, 8.48363161087036130000e-001) (49, 1.50000000000000000000e+003) (50, 5.11848852038383480000e-002) (51, 1.50000000000000000000e+003) (52, -7.35557675361633300000e-001) (53, 1.50000000000000000000e+003) (54, -1.95258903503417970000e+000) (55, 1.50000000000000000000e+003) (56, 1.50000000000000000000e+003) (57, 3.37972998619079590000e+000) (58, 1.50000000000000000000e+003) (59, 8.76517295837402340000e-001) (60, 1.50000000000000000000e+003) (61, 1.10183489322662350000e+000) (62, 1.50000000000000000000e+003) (63, 3.00445890426635740000e+000) (64, 3.55655923485755920000e-002) (0, -2.21776217222213750000e-001) (1, 1.50000000000000000000e+003) (2, 1.98150300979614260000e+000) (3, 1.50000000000000000000e+003) (4, 8.81083216518163680000e-003) (5, 1.50000000000000000000e+003) (6, 2.80122399330139160000e+000) (7, 1.50000000000000000000e+003) (8, 1.50000000000000000000e+003) (9, 7.85707592964172360000e-001) (10, 1.50000000000000000000e+003) (11, 2.38694238662719730000e+000) (12, 1.50000000000000000000e+003) (13, 9.93623673915863040000e-001) (14, 1.50000000000000000000e+003) (15, 1.65197527408599850000e+000) (16, 1.69313585758209230000e+000) (17, 1.50000000000000000000e+003) (18, 4.88098859786987300000e-001) (19, 1.50000000000000000000e+003) (20, 3.49195146560668950000e+000) (21, 1.50000000000000000000e+003) (22, 1.48354530334472660000e+000) (23, 1.50000000000000000000e+003) (24, 1.50000000000000000000e+003) (25, 1.77187895774841310000e+000) (26, 1.50000000000000000000e+003) (27, 2.55968475341796870000e+000) (28, 1.50000000000000000000e+003) (29, 2.44173693656921390000e+000) (30, 1.50000000000000000000e+003) (31, 1.23253107070922850000e+000) (32, 3.00382804870605470000e+000) (33, 1.50000000000000000000e+003) (34, 1.13419306278228760000e+000) (35, 1.50000000000000000000e+003) (36, 1.19055724143981930000e+000) (37, 1.50000000000000000000e+003) (38, 1.10325109958648680000e+000) (39, 1.50000000000000000000e+003) (40, 1.50000000000000000000e+003) (41, 2.38762521743774410000e+000) (42, 1.50000000000000000000e+003) (43, 3.22995758056640620000e+000) (44, 1.50000000000000000000e+003) (45, 1.61106812953948970000e+000) (46, 1.50000000000000000000e+003) (47, 2.37838077545166020000e+000) (48, 1.62331476807594300000e-001) (49, 1.50000000000000000000e+003) (50, 2.62488794326782230000e+000) (51, 1.50000000000000000000e+003) (52, 2.26533222198486330000e+000) (53, 1.50000000000000000000e+003) (54, -1.96656182408332820000e-001) (55, 1.50000000000000000000e+003) (56, 1.50000000000000000000e+003) (57, 2.80351662635803220000e+000) (58, 1.50000000000000000000e+003) (59, 2.47176694869995120000e+000) (60, 1.50000000000000000000e+003) (61, 2.43951940536499020000e+000) (62, 1.50000000000000000000e+003) (63, 1.77848064899444580000e+000) (64, -8.59509229660034180000e-001) (0, 4.36920118331909180000e+000) (1, 1.50000000000000000000e+003) (2, 1.97214412689208980000e+000) (3, 1.50000000000000000000e+003) (4, 9.46730196475982670000e-001) (5, 1.50000000000000000000e+003) (6, 2.42745733261108400000e+000) (7, 1.50000000000000000000e+003) (8, 1.50000000000000000000e+003) (9, 6.48044466972351070000e-001) (10, 1.50000000000000000000e+003) (11, -4.47743654251098630000e-001) (12, 1.50000000000000000000e+003) (13, 1.83457052707672120000e+000) (14, 1.50000000000000000000e+003) (15, 2.15904951095581050000e+000) (16, 1.51945149898529050000e+000) (17, 1.50000000000000000000e+003) (18, 2.11038783192634580000e-001) (19, 1.50000000000000000000e+003) (20, 2.03299188613891600000e+000) (21, 1.50000000000000000000e+003) (22, 1.05454519391059880000e-001) (23, 1.50000000000000000000e+003) (24, 1.50000000000000000000e+003) (25, 2.05835604667663570000e+000) (26, 1.50000000000000000000e+003) (27, 1.07326352596282960000e+000) (28, 1.50000000000000000000e+003) (29, 3.77743184566497800000e-001) (30, 1.50000000000000000000e+003) (31, 4.09959197044372560000e-001) (32, 1.20782673358917240000e+000) (33, 1.50000000000000000000e+003) (34, 5.68411707878112790000e-001) (35, 1.50000000000000000000e+003) (36, 8.17641615867614750000e-001) (37, 1.50000000000000000000e+003) (38, 1.74443215131759640000e-001) (39, 1.50000000000000000000e+003) (40, 1.50000000000000000000e+003) (41, 1.94851672649383540000e+000) (42, 1.50000000000000000000e+003) (43, 1.48432946205139160000e+000) (44, 1.50000000000000000000e+003) (45, 1.34508222341537480000e-001) (46, 1.50000000000000000000e+003) (47, 1.64969813823699950000e+000) (48, 3.39967072010040280000e-001) (49, 1.50000000000000000000e+003) (50, 1.37722074985504150000e+000) (51, 1.50000000000000000000e+003) (52, 8.97135972976684570000e-001) (53, 1.50000000000000000000e+003) (54, 1.02484536170959470000e+000) (55, 1.50000000000000000000e+003) (56, 1.50000000000000000000e+003) (57, -2.83083338290452960000e-002) (58, 1.50000000000000000000e+003) (59, 1.29976719617843630000e-001) (60, 1.50000000000000000000e+003) (61, 3.19444119930267330000e-001) (62, 1.50000000000000000000e+003) (63, 8.77873659133911130000e-001) (64, 1.75267505645751950000e+000) (0, 5.92974901199340820000e+000) (1, 1.50000000000000000000e+003) (2, 1.35412204265594480000e+000) (3, 1.50000000000000000000e+003) (4, 2.74812769889831540000e+000) (5, 1.50000000000000000000e+003) (6, 2.00970196723937990000e+000) (7, 1.50000000000000000000e+003) (8, 1.50000000000000000000e+003) (9, 9.93786931037902830000e-001) (10, 1.50000000000000000000e+003) (11, 1.17511165142059330000e+000) (12, 1.50000000000000000000e+003) (13, 2.43918514251708980000e+000) (14, 1.50000000000000000000e+003) (15, 2.45259213447570800000e+000) (16, 2.52935338020324710000e+000) (17, 1.50000000000000000000e+003) (18, 2.22315597534179690000e+000) (19, 1.50000000000000000000e+003) (20, 2.33570623397827150000e+000) (21, 1.50000000000000000000e+003) (22, -1.82410252094268800000e+000) (23, 1.50000000000000000000e+003) (24, 1.50000000000000000000e+003) (25, 1.04150176048278810000e+000) (26, 1.50000000000000000000e+003) (27, 3.26955854892730710000e-001) (28, 1.50000000000000000000e+003) (29, 9.83492732048034670000e-001) (30, 1.50000000000000000000e+003) (31, 2.59339356422424320000e+000) (32, 1.33833122253417970000e+000) (33, 1.50000000000000000000e+003) (34, 1.63552665710449220000e+000) (35, 1.50000000000000000000e+003) (36, 3.12660527229309080000e+000) (37, 1.50000000000000000000e+003) (38, 6.49536371231079100000e-001) (39, 1.50000000000000000000e+003) (40, 1.50000000000000000000e+003) (41, 3.01061463356018070000e+000) (42, 1.50000000000000000000e+003) (43, 4.11364249885082240000e-002) (44, 1.50000000000000000000e+003) (45, -3.58358764648437500000e+000) (46, 1.50000000000000000000e+003) (47, 2.73607230186462400000e+000) (48, 8.74926924705505370000e-001) (49, 1.50000000000000000000e+003) (50, 6.04619681835174560000e-001) (51, 1.50000000000000000000e+003) (52, -2.09930086135864260000e+000) (53, 1.50000000000000000000e+003) (54, -3.96516799926757810000e-001) (55, 1.50000000000000000000e+003) (56, 1.50000000000000000000e+003) (57, 6.60687804222106930000e-001) (58, 1.50000000000000000000e+003) (59, -1.05673372745513920000e+000) (60, 1.50000000000000000000e+003) (61, 2.62473404407501220000e-001) (62, 1.50000000000000000000e+003) (63, 1.76705789566040040000e+000) (64, 7.37055659294128420000e-001) (0, 4.46892929077148440000e+000) (1, 1.50000000000000000000e+003) (2, 4.53179311752319340000e+000) (3, 1.50000000000000000000e+003) (4, 2.22855806350708010000e+000) (5, 1.50000000000000000000e+003) (6, 2.53751397132873540000e+000) (7, 1.50000000000000000000e+003) (8, 1.50000000000000000000e+003) (9, 2.09990954399108890000e+000) (10, 1.50000000000000000000e+003) (11, 1.55978131294250490000e+000) (12, 1.50000000000000000000e+003) (13, 9.46138024330139160000e-001) (14, 1.50000000000000000000e+003) (15, -1.75449430942535400000e-001) (16, -8.77661526203155520000e-001) (17, 1.50000000000000000000e+003) (18, 5.72754740715026860000e-001) (19, 1.50000000000000000000e+003) (20, 1.44856274127960210000e+000) (21, 1.50000000000000000000e+003) (22, 2.63844609260559080000e+000) (23, 1.50000000000000000000e+003) (24, 1.50000000000000000000e+003) (25, 8.94807517528533940000e-001) (26, 1.50000000000000000000e+003) (27, -9.05788898468017580000e-001) (28, 1.50000000000000000000e+003) (29, 1.69327223300933840000e+000) (30, 1.50000000000000000000e+003) (31, -3.24894577264785770000e-001) (32, -3.31562250852584840000e-001) (33, 1.50000000000000000000e+003) (34, 1.18529510498046870000e+000) (35, 1.50000000000000000000e+003) (36, 1.03658223152160640000e+000) (37, 1.50000000000000000000e+003) (38, -3.43156963586807250000e-001) (39, 1.50000000000000000000e+003) (40, 1.50000000000000000000e+003) (41, 7.54813253879547120000e-001) (42, 1.50000000000000000000e+003) (43, -1.03466331958770750000e-001) (44, 1.50000000000000000000e+003) (45, 3.73618602752685550000e-001) (46, 1.50000000000000000000e+003) (47, 1.51809680461883540000e+000) (48, 1.60237061977386470000e+000) (49, 1.50000000000000000000e+003) (50, 9.42755579948425290000e-001) (51, 1.50000000000000000000e+003) (52, 1.59044742584228520000e+000) (53, 1.50000000000000000000e+003) (54, 5.62576889991760250000e-001) (55, 1.50000000000000000000e+003) (56, 1.50000000000000000000e+003) (57, 2.50259947776794430000e+000) (58, 1.50000000000000000000e+003) (59, 1.17263996601104740000e+000) (60, 1.50000000000000000000e+003) (61, 2.26473116874694820000e+000) (62, 1.50000000000000000000e+003) (63, 6.92156314849853520000e-001) (64, -4.02712523937225340000e-001) (0, 3.86006641387939450000e+000) (1, 1.50000000000000000000e+003) (2, 2.14995908737182620000e+000) (3, 1.50000000000000000000e+003) (4, 1.23837769031524660000e+000) (5, 1.50000000000000000000e+003) (6, 6.69981002807617190000e-001) (7, 1.50000000000000000000e+003) (8, 1.50000000000000000000e+003) (9, 2.25217342376708980000e+000) (10, 1.50000000000000000000e+003) (11, 2.18318533897399900000e+000) (12, 1.50000000000000000000e+003) (13, 2.22901654243469240000e+000) (14, 1.50000000000000000000e+003) (15, 1.75559222698211670000e+000) (16, 7.19702899456024170000e-001) (17, 1.50000000000000000000e+003) (18, 2.65123438835144040000e+000) (19, 1.50000000000000000000e+003) (20, 2.08672952651977540000e+000) (21, 1.50000000000000000000e+003) (22, 9.28618788719177250000e-001) (23, 1.50000000000000000000e+003) (24, 1.50000000000000000000e+003) (25, 5.36549985408782960000e-001) (26, 1.50000000000000000000e+003) (27, 2.26089811325073240000e+000) (28, 1.50000000000000000000e+003) (29, 2.53596615791320800000e+000) (30, 1.50000000000000000000e+003) (31, 1.26913249492645260000e+000) (32, 2.42858552932739260000e+000) (33, 1.50000000000000000000e+003) (34, 2.12205147743225100000e+000) (35, 1.50000000000000000000e+003) (36, 4.14280682802200320000e-001) (37, 1.50000000000000000000e+003) (38, 3.80475282669067380000e-001) (39, 1.50000000000000000000e+003) (40, 1.50000000000000000000e+003) (41, -3.73227670788764950000e-002) (42, 1.50000000000000000000e+003) (43, 1.77635180950164790000e+000) (44, 1.50000000000000000000e+003) (45, 2.00028324127197270000e+000) (46, 1.50000000000000000000e+003) (47, 1.96026360988616940000e+000) (48, 2.42009186744689940000e+000) (49, 1.50000000000000000000e+003) (50, 2.48853874206542970000e+000) (51, 1.50000000000000000000e+003) (52, 1.22146260738372800000e+000) (53, 1.50000000000000000000e+003) (54, 2.43610715866088870000e+000) (55, 1.50000000000000000000e+003) (56, 1.50000000000000000000e+003) (57, 5.38554370403289790000e-001) (58, 1.50000000000000000000e+003) (59, 2.15735912322998050000e+000) (60, 1.50000000000000000000e+003) (61, 2.41797447204589840000e+000) (62, 1.50000000000000000000e+003) (63, 2.67922234535217290000e+000) (64, -4.20425534248352050000e-001) (0, 4.38804817199707030000e+000) (1, 1.50000000000000000000e+003) (2, 2.80961990356445310000e+000) (3, 1.50000000000000000000e+003) (4, 2.62104034423828130000e+000) (5, 1.50000000000000000000e+003) (6, 1.20495533943176270000e+000) (7, 1.50000000000000000000e+003) (8, 1.50000000000000000000e+003) (9, 1.87887680530548100000e+000) (10, 1.50000000000000000000e+003) (11, 1.99932396411895750000e+000) (12, 1.50000000000000000000e+003) (13, 8.01809549331665040000e-001) (14, 1.50000000000000000000e+003) (15, 4.11570405960083010000e+000) (16, 3.29252213239669800000e-001) (17, 1.50000000000000000000e+003) (18, 2.64591288566589360000e+000) (19, 1.50000000000000000000e+003) (20, 2.53164434432983400000e+000) (21, 1.50000000000000000000e+003) (22, 6.96249604225158690000e-002) (23, 1.50000000000000000000e+003) (24, 1.50000000000000000000e+003) (25, 4.96148020029067990000e-001) (26, 1.50000000000000000000e+003) (27, 8.25733661651611330000e-001) (28, 1.50000000000000000000e+003) (29, 1.56133973598480220000e+000) (30, 1.50000000000000000000e+003) (31, -5.10792434215545650000e-001) (32, 8.64343166351318360000e-001) (33, 1.50000000000000000000e+003) (34, 2.08909201622009280000e+000) (35, 1.50000000000000000000e+003) (36, 3.03165769577026370000e+000) (37, 1.50000000000000000000e+003) (38, 9.09347295761108400000e-001) (39, 1.50000000000000000000e+003) (40, 1.50000000000000000000e+003) (41, 1.03745901584625240000e+000) (42, 1.50000000000000000000e+003) (43, 2.32718825340271000000e+000) (44, 1.50000000000000000000e+003) (45, 5.37756621837615970000e-001) (46, 1.50000000000000000000e+003) (47, 1.15315365791320800000e+000) (48, 1.69141685962677000000e+000) (49, 1.50000000000000000000e+003) (50, 5.24215281009674070000e-001) (51, 1.50000000000000000000e+003) (52, -1.35961294174194340000e+000) (53, 1.50000000000000000000e+003) (54, 1.28145658969879150000e+000) (55, 1.50000000000000000000e+003) (56, 1.50000000000000000000e+003) (57, 2.56819486618041990000e+000) (58, 1.50000000000000000000e+003) (59, 6.63594156503677370000e-002) (60, 1.50000000000000000000e+003) (61, 2.71192789077758790000e+000) (62, 1.50000000000000000000e+003) (63, -1.50923699140548710000e-001) (64, 7.74036824703216550000e-001) (0, 2.21563887596130370000e+000) (1, 1.50000000000000000000e+003) (2, 3.43825221061706540000e+000) (3, 1.50000000000000000000e+003) (4, -1.09761440753936770000e+000) (5, 1.50000000000000000000e+003) (6, 2.01505923271179200000e+000) (7, 1.50000000000000000000e+003) (8, 1.50000000000000000000e+003) (9, 6.45291090011596680000e-001) (10, 1.50000000000000000000e+003) (11, 3.11905193328857420000e+000) (12, 1.50000000000000000000e+003) (13, 7.69171178340911870000e-001) (14, 1.50000000000000000000e+003) (15, 1.92333054542541500000e+000) (16, 1.37261199951171870000e+000) (17, 1.50000000000000000000e+003) (18, 6.73412501811981200000e-001) (19, 1.50000000000000000000e+003) (20, 1.89775085449218750000e+000) (21, 1.50000000000000000000e+003) (22, 1.81696283817291260000e+000) (23, 1.50000000000000000000e+003) (24, 1.50000000000000000000e+003) (25, 1.57326787710189820000e-001) (26, 1.50000000000000000000e+003) (27, 9.74465608596801760000e-001) (28, 1.50000000000000000000e+003) (29, 1.92794489860534670000e+000) (30, 1.50000000000000000000e+003) (31, -1.33212995529174800000e+000) (32, 1.61889159679412840000e+000) (33, 1.50000000000000000000e+003) (34, 6.99917972087860110000e-001) (35, 1.50000000000000000000e+003) (36, 8.10275673866271970000e-001) (37, 1.50000000000000000000e+003) (38, 1.64589732885360720000e-001) (39, 1.50000000000000000000e+003) (40, 1.50000000000000000000e+003) (41, 7.43912935256958010000e-001) (42, 1.50000000000000000000e+003) (43, 1.93877744674682620000e+000) (44, 1.50000000000000000000e+003) (45, 2.61693209409713750000e-001) (46, 1.50000000000000000000e+003) (47, 2.79620242118835450000e+000) (48, 1.25712120532989500000e+000) (49, 1.50000000000000000000e+003) (50, 2.38163352012634280000e+000) (51, 1.50000000000000000000e+003) (52, 3.88411474227905270000e+000) (53, 1.50000000000000000000e+003) (54, 3.05893301963806150000e-001) (55, 1.50000000000000000000e+003) (56, 1.50000000000000000000e+003) (57, 9.81006920337677000000e-001) (58, 1.50000000000000000000e+003) (59, 3.48955869674682620000e+000) (60, 1.50000000000000000000e+003) (61, 1.22832572460174560000e+000) (62, 1.50000000000000000000e+003) (63, 1.63842868804931640000e+000) (64, 1.22999835014343260000e+000) (0, 3.04855847358703610000e+000) (1, 1.50000000000000000000e+003) (2, 2.13223028182983400000e+000) (3, 1.50000000000000000000e+003) (4, 1.25278317928314210000e+000) (5, 1.50000000000000000000e+003) (6, -7.59617239236831670000e-002) (7, 1.50000000000000000000e+003) (8, 1.50000000000000000000e+003) (9, 3.72967511415481570000e-001) (10, 1.50000000000000000000e+003) (11, 1.03089725971221920000e+000) (12, 1.50000000000000000000e+003) (13, 1.99275279045104980000e+000) (14, 1.50000000000000000000e+003) (15, 1.11934602260589600000e+000) (16, 2.07646226882934570000e+000) (17, 1.50000000000000000000e+003) (18, 2.23842644691467290000e+000) (19, 1.50000000000000000000e+003) (20, 8.75271856784820560000e-002) (21, 1.50000000000000000000e+003) (22, 1.51539647579193120000e+000) (23, 1.50000000000000000000e+003) (24, 1.50000000000000000000e+003) (25, 9.48113024234771730000e-001) (26, 1.50000000000000000000e+003) (27, 1.19545602798461910000e+000) (28, 1.50000000000000000000e+003) (29, 1.35561537742614750000e+000) (30, 1.50000000000000000000e+003) (31, 1.76139545440673830000e+000) (32, 8.60915362834930420000e-001) (33, 1.50000000000000000000e+003) (34, 1.39787757396698000000e+000) (35, 1.50000000000000000000e+003) (36, 1.88696837425231930000e+000) (37, 1.50000000000000000000e+003) (38, 1.11923456192016600000e+000) (39, 1.50000000000000000000e+003) (40, 1.50000000000000000000e+003) (41, 8.10567200183868410000e-001) (42, 1.50000000000000000000e+003) (43, 1.55158972740173340000e+000) (44, 1.50000000000000000000e+003) (45, 6.64130508899688720000e-001) (46, 1.50000000000000000000e+003) (47, 8.99189054965972900000e-001) (48, 1.87195777893066410000e+000) (49, 1.50000000000000000000e+003) (50, 2.06684160232543950000e+000) (51, 1.50000000000000000000e+003) (52, 1.74348855018615720000e+000) (53, 1.50000000000000000000e+003) (54, 1.70209789276123050000e+000) (55, 1.50000000000000000000e+003) (56, 1.50000000000000000000e+003) (57, 4.21211779117584230000e-001) (58, 1.50000000000000000000e+003) (59, 8.18509042263031010000e-001) (60, 1.50000000000000000000e+003) (61, 1.28434288501739500000e+000) (62, 1.50000000000000000000e+003) (63, 8.42307388782501220000e-001) (64, -1.87085896730422970000e-001) (0, 3.10567116737365720000e+000) (1, 1.50000000000000000000e+003) (2, 2.09809088706970210000e+000) (3, 1.50000000000000000000e+003) (4, 2.66398000717163090000e+000) (5, 1.50000000000000000000e+003) (6, 1.65571141242980960000e+000) (7, 1.50000000000000000000e+003) (8, 1.50000000000000000000e+003) (9, 6.50289952754974370000e-001) (10, 1.50000000000000000000e+003) (11, 2.13952732086181640000e+000) (12, 1.50000000000000000000e+003) (13, 2.24483919143676760000e+000) (14, 1.50000000000000000000e+003) (15, -4.77056550979614260000e+000) (16, 1.15356802940368650000e+000) (17, 1.50000000000000000000e+003) (18, 2.20501232147216800000e+000) (19, 1.50000000000000000000e+003) (20, 1.92572069168090820000e+000) (21, 1.50000000000000000000e+003) (22, 1.27523136138916020000e+000) (23, 1.50000000000000000000e+003) (24, 1.50000000000000000000e+003) (25, -9.00676369667053220000e-001) (26, 1.50000000000000000000e+003) (27, 1.42496383190155030000e+000) (28, 1.50000000000000000000e+003) (29, 1.94853925704956050000e+000) (30, 1.50000000000000000000e+003) (31, -6.89390897750854490000e-001) (32, 9.10752058029174800000e-001) (33, 1.50000000000000000000e+003) (34, 7.91399598121643070000e-001) (35, 1.50000000000000000000e+003) (36, 1.65537011623382570000e+000) (37, 1.50000000000000000000e+003) (38, 6.90835952758789060000e-001) (39, 1.50000000000000000000e+003) (40, 1.50000000000000000000e+003) (41, 3.95856112241745000000e-001) (42, 1.50000000000000000000e+003) (43, 2.82608222961425780000e+000) (44, 1.50000000000000000000e+003) (45, 1.91155445575714110000e+000) (46, 1.50000000000000000000e+003) (47, 1.20738124847412110000e+000) (48, 2.91522741317749020000e-001) (49, 1.50000000000000000000e+003) (50, 1.78440719842910770000e-001) (51, 1.50000000000000000000e+003) (52, 6.42469108104705810000e-001) (53, 1.50000000000000000000e+003) (54, 1.86910212039947510000e+000) (55, 1.50000000000000000000e+003) (56, 1.50000000000000000000e+003) (57, 4.66466993093490600000e-001) (58, 1.50000000000000000000e+003) (59, 5.78870534896850590000e-001) (60, 1.50000000000000000000e+003) (61, 1.01494622230529790000e+000) (62, 1.50000000000000000000e+003) (63, 7.92101681232452390000e-001) (64, 8.16671133041381840000e-001) (0, -1.65457224845886230000e+000) (1, 1.50000000000000000000e+003) (2, 1.06719005107879640000e+000) (3, 1.50000000000000000000e+003) (4, 1.03119313716888430000e+000) (5, 1.50000000000000000000e+003) (6, 2.79957461357116700000e+000) (7, 1.50000000000000000000e+003) (8, 1.50000000000000000000e+003) (9, 2.81958150863647460000e+000) (10, 1.50000000000000000000e+003) (11, 2.94161844253540040000e+000) (12, 1.50000000000000000000e+003) (13, 4.18811023235321040000e-001) (14, 1.50000000000000000000e+003) (15, 2.84629011154174800000e+000) (16, 6.98555588722229000000e-001) (17, 1.50000000000000000000e+003) (18, 9.30640161037445070000e-001) (19, 1.50000000000000000000e+003) (20, 5.56496560573577880000e-001) (21, 1.50000000000000000000e+003) (22, 8.20363938808441160000e-001) (23, 1.50000000000000000000e+003) (24, 1.50000000000000000000e+003) (25, 5.41332125663757320000e-001) (26, 1.50000000000000000000e+003) (27, 2.43921327590942380000e+000) (28, 1.50000000000000000000e+003) (29, 7.11810216307640080000e-002) (30, 1.50000000000000000000e+003) (31, 2.00829124450683590000e+000) (32, 5.58251500129699710000e-001) (33, 1.50000000000000000000e+003) (34, 9.79105234146118160000e-001) (35, 1.50000000000000000000e+003) (36, 1.21380031108856200000e+000) (37, 1.50000000000000000000e+003) (38, 1.30101525783538820000e+000) (39, 1.50000000000000000000e+003) (40, 1.50000000000000000000e+003) (41, 2.36946582794189450000e+000) (42, 1.50000000000000000000e+003) (43, 2.52239555120468140000e-001) (44, 1.50000000000000000000e+003) (45, 8.76552700996398930000e-001) (46, 1.50000000000000000000e+003) (47, 1.89549720287323000000e+000) (48, 8.05517017841339110000e-001) (49, 1.50000000000000000000e+003) (50, 1.43768322467803960000e+000) (51, 1.50000000000000000000e+003) (52, 2.51712369918823240000e+000) (53, 1.50000000000000000000e+003) (54, 1.53210914134979250000e+000) (55, 1.50000000000000000000e+003) (56, 1.50000000000000000000e+003) (57, 1.11333414912223820000e-001) (58, 1.50000000000000000000e+003) (59, 1.89400100708007810000e+000) (60, 1.50000000000000000000e+003) (61, 3.00005674362182620000e+000) (62, 1.50000000000000000000e+003) (63, 8.42598140239715580000e-001) (64, -4.77829426527023320000e-001) (0, 1.38662219047546390000e+000) (1, 1.50000000000000000000e+003) (2, 1.58620333671569820000e+000) (3, 1.50000000000000000000e+003) (4, -1.52970206737518310000e+000) (5, 1.50000000000000000000e+003) (6, -6.03238120675086980000e-002) (7, 1.50000000000000000000e+003) (8, 1.50000000000000000000e+003) (9, 5.69051861763000490000e-001) (10, 1.50000000000000000000e+003) (11, -7.76428794860839840000e+000) (12, 1.50000000000000000000e+003) (13, 1.84188318252563480000e+000) (14, 1.50000000000000000000e+003) (15, 6.97328329086303710000e-001) (16, 1.23260185122489930000e-001) (17, 1.50000000000000000000e+003) (18, 2.29779911041259770000e+000) (19, 1.50000000000000000000e+003) (20, 3.13598966598510740000e+000) (21, 1.50000000000000000000e+003) (22, 1.13686132431030270000e+000) (23, 1.50000000000000000000e+003) (24, 1.50000000000000000000e+003) (25, 1.77864062786102290000e+000) (26, 1.50000000000000000000e+003) (27, 2.98461127281188960000e+000) (28, 1.50000000000000000000e+003) (29, 1.68911695480346680000e+000) (30, 1.50000000000000000000e+003) (31, 2.62650728225708010000e+000) (32, 7.03835546970367430000e-001) (33, 1.50000000000000000000e+003) (34, 8.96142646670341490000e-002) (35, 1.50000000000000000000e+003) (36, 2.31183266639709470000e+000) (37, 1.50000000000000000000e+003) (38, -2.40674540400505070000e-001) (39, 1.50000000000000000000e+003) (40, 1.50000000000000000000e+003) (41, 2.25392985343933110000e+000) (42, 1.50000000000000000000e+003) (43, 1.35768878459930420000e+000) (44, 1.50000000000000000000e+003) (45, -2.70232856273651120000e-001) (46, 1.50000000000000000000e+003) (47, 2.32066440582275390000e+000) (48, 3.20069700479507450000e-001) (49, 1.50000000000000000000e+003) (50, -5.21372318267822270000e-001) (51, 1.50000000000000000000e+003) (52, 2.14472603797912600000e+000) (53, 1.50000000000000000000e+003) (54, 2.62112307548522950000e+000) (55, 1.50000000000000000000e+003) (56, 1.50000000000000000000e+003) (57, 1.20803141593933110000e+000) (58, 1.50000000000000000000e+003) (59, 1.81695628166198730000e+000) (60, 1.50000000000000000000e+003) (61, 2.91299700736999510000e+000) (62, 1.50000000000000000000e+003) (63, 9.41467404365539550000e-001) (64, 1.48405444622039790000e+000) (0, 2.09517574310302730000e+000) (1, 1.50000000000000000000e+003) (2, 1.55930578708648680000e-001) (3, 1.50000000000000000000e+003) (4, 5.52561163902282710000e-001) (5, 1.50000000000000000000e+003) (6, 2.93070882558822630000e-001) (7, 1.50000000000000000000e+003) (8, 1.50000000000000000000e+003) (9, 6.81500792503356930000e-001) (10, 1.50000000000000000000e+003) (11, 1.09924364089965820000e+000) (12, 1.50000000000000000000e+003) (13, -9.29532721638679500000e-002) (14, 1.50000000000000000000e+003) (15, 8.91268312931060790000e-001) (16, 2.52230942249298100000e-001) (17, 1.50000000000000000000e+003) (18, 3.01619678735733030000e-001) (19, 1.50000000000000000000e+003) (20, 9.39497292041778560000e-001) (21, 1.50000000000000000000e+003) (22, 1.57483649253845210000e+000) (23, 1.50000000000000000000e+003) (24, 1.50000000000000000000e+003) (25, 2.42598247528076170000e+000) (26, 1.50000000000000000000e+003) (27, 5.99743902683258060000e-001) (28, 1.50000000000000000000e+003) (29, 2.13123857975006100000e-002) (30, 1.50000000000000000000e+003) (31, 9.39024612307548520000e-002) (32, 2.31779646873474120000e+000) (33, 1.50000000000000000000e+003) (34, 2.47560644149780270000e+000) (35, 1.50000000000000000000e+003) (36, 2.15162181854248050000e+000) (37, 1.50000000000000000000e+003) (38, 2.37740588188171390000e+000) (39, 1.50000000000000000000e+003) (40, 1.50000000000000000000e+003) (41, -2.05719232559204100000e-001) (42, 1.50000000000000000000e+003) (43, 8.66518914699554440000e-001) (44, 1.50000000000000000000e+003) (45, 3.82550984621047970000e-001) (46, 1.50000000000000000000e+003) (47, 1.86929643154144290000e+000) (48, 1.50614774227142330000e+000) (49, 1.50000000000000000000e+003) (50, 2.43542051315307620000e+000) (51, 1.50000000000000000000e+003) (52, 2.40070414543151860000e+000) (53, 1.50000000000000000000e+003) (54, 3.66648435592651370000e-001) (55, 1.50000000000000000000e+003) (56, 1.50000000000000000000e+003) (57, 1.01615853607654570000e-001) (58, 1.50000000000000000000e+003) (59, 1.60518205165863040000e+000) (60, 1.50000000000000000000e+003) (61, 4.35894042253494260000e-001) (62, 1.50000000000000000000e+003) (63, -1.66290566325187680000e-001) (64, -4.51584249734878540000e-001) (0, -6.60638511180877690000e-001) (1, 1.50000000000000000000e+003) (2, 3.05710864067077640000e+000) (3, 1.50000000000000000000e+003) (4, 1.78503346443176270000e+000) (5, 1.50000000000000000000e+003) (6, 2.94998258352279660000e-001) (7, 1.50000000000000000000e+003) (8, 1.50000000000000000000e+003) (9, 2.00787115097045900000e+000) (10, 1.50000000000000000000e+003) (11, 5.62378883361816410000e-001) (12, 1.50000000000000000000e+003) (13, 3.09513783454895020000e+000) (14, 1.50000000000000000000e+003) (15, 1.31616461277008060000e+000) (16, 2.09327983856201170000e+000) (17, 1.50000000000000000000e+003) (18, 4.38632190227508540000e-001) (19, 1.50000000000000000000e+003) (20, 3.32168221473693850000e-001) (21, 1.50000000000000000000e+003) (22, 6.44987463951110840000e-001) (23, 1.50000000000000000000e+003) (24, 1.50000000000000000000e+003) (25, 2.25602793693542480000e+000) (26, 1.50000000000000000000e+003) (27, -2.30016565322875980000e+000) (28, 1.50000000000000000000e+003) (29, 2.14477881789207460000e-001) (30, 1.50000000000000000000e+003) (31, 1.43980860710144040000e+000) (32, 2.15502834320068360000e+000) (33, 1.50000000000000000000e+003) (34, 2.34283447265625000000e+000) (35, 1.50000000000000000000e+003) (36, 7.44166553020477290000e-001) (37, 1.50000000000000000000e+003) (38, 9.14580523967742920000e-002) (39, 1.50000000000000000000e+003) (40, 1.50000000000000000000e+003) (41, -1.29782482981681820000e-001) (42, 1.50000000000000000000e+003) (43, 2.92550277709960940000e+000) (44, 1.50000000000000000000e+003) (45, 2.10968828201293950000e+000) (46, 1.50000000000000000000e+003) (47, 1.86952042579650880000e+000) (48, 2.31537318229675290000e+000) (49, 1.50000000000000000000e+003) (50, -4.88735269755125050000e-004) (51, 1.50000000000000000000e+003) (52, 1.60322976112365720000e+000) (53, 1.50000000000000000000e+003) (54, 1.84944891929626460000e+000) (55, 1.50000000000000000000e+003) (56, 1.50000000000000000000e+003) (57, -3.80165606737136840000e-001) (58, 1.50000000000000000000e+003) (59, 7.66271352767944340000e-002) (60, 1.50000000000000000000e+003) (61, 2.60959553718566890000e+000) (62, 1.50000000000000000000e+003) (63, 2.94343495368957520000e+000) (64, -1.66448816657066350000e-001) (0, 4.23137283325195310000e+000) (1, 1.50000000000000000000e+003) (2, -3.43524396419525150000e-001) (3, 1.50000000000000000000e+003) (4, 1.47888913750648500000e-001) (5, 1.50000000000000000000e+003) (6, 4.54586505889892580000e-001) (7, 1.50000000000000000000e+003) (8, 1.50000000000000000000e+003) (9, 2.10392665863037110000e+000) (10, 1.50000000000000000000e+003) (11, 8.83773088455200200000e-001) (12, 1.50000000000000000000e+003) (13, 1.73901748657226560000e+000) (14, 1.50000000000000000000e+003) (15, 1.71742856502532960000e+000) (16, 1.65531134605407710000e+000) (17, 1.50000000000000000000e+003) (18, 1.10069453716278080000e+000) (19, 1.50000000000000000000e+003) (20, 1.83879280090332030000e+000) (21, 1.50000000000000000000e+003) (22, 7.09310472011566160000e-001) (23, 1.50000000000000000000e+003) (24, 1.50000000000000000000e+003) (25, 8.25375258922576900000e-001) (26, 1.50000000000000000000e+003) (27, -3.63728046417236330000e+000) (28, 1.50000000000000000000e+003) (29, 1.48443853855133060000e+000) (30, 1.50000000000000000000e+003) (31, 2.28418254852294920000e+000) (32, 1.16179156303405760000e+000) (33, 1.50000000000000000000e+003) (34, 1.09207344055175780000e+000) (35, 1.50000000000000000000e+003) (36, 2.88012003898620610000e+000) (37, 1.50000000000000000000e+003) (38, 8.33534717559814450000e-001) (39, 1.50000000000000000000e+003) (40, 1.50000000000000000000e+003) (41, 1.74059915542602540000e+000) (42, 1.50000000000000000000e+003) (43, 7.73288130760192870000e-001) (44, 1.50000000000000000000e+003) (45, 1.42287993431091310000e+000) (46, 1.50000000000000000000e+003) (47, 5.04907727241516110000e-001) (48, 8.55579912662506100000e-001) (49, 1.50000000000000000000e+003) (50, 8.79117012023925780000e-001) (51, 1.50000000000000000000e+003) (52, 4.71772938966751100000e-001) (53, 1.50000000000000000000e+003) (54, 8.47495257854461670000e-001) (55, 1.50000000000000000000e+003) (56, 1.50000000000000000000e+003) (57, 3.12298595905303960000e-001) (58, 1.50000000000000000000e+003) (59, 1.57371366024017330000e+000) (60, 1.50000000000000000000e+003) (61, 1.40394735336303710000e+000) (62, 1.50000000000000000000e+003) (63, 1.12208318710327150000e+000) (64, 1.45677077770233150000e+000) (0, 4.69334363937377930000e+000) (1, 1.50000000000000000000e+003) (2, 2.95110821723937990000e+000) (3, 1.50000000000000000000e+003) (4, 9.60604548454284670000e-001) (5, 1.50000000000000000000e+003) (6, 1.03412926197052000000e+000) (7, 1.50000000000000000000e+003) (8, 1.50000000000000000000e+003) (9, -1.37693560123443600000e+000) (10, 1.50000000000000000000e+003) (11, 1.97861409187316890000e+000) (12, 1.50000000000000000000e+003) (13, 8.85647594928741460000e-001) (14, 1.50000000000000000000e+003) (15, -2.89798426628112790000e+000) (16, 4.60881382226943970000e-001) (17, 1.50000000000000000000e+003) (18, 4.26602363586425780000e-001) (19, 1.50000000000000000000e+003) (20, 2.27027463912963870000e+000) (21, 1.50000000000000000000e+003) (22, 6.13683891296386720000e+000) (23, 1.50000000000000000000e+003) (24, 1.50000000000000000000e+003) (25, 1.16886043548583980000e+000) (26, 1.50000000000000000000e+003) (27, -1.11864531040191650000e+000) (28, 1.50000000000000000000e+003) (29, 1.17410290241241460000e+000) (30, 1.50000000000000000000e+003) (31, 6.07838988304138180000e-001) (32, 6.32893383502960210000e-001) (33, 1.50000000000000000000e+003) (34, 8.16161334514617920000e-002) (35, 1.50000000000000000000e+003) (36, -4.18550014495849610000e-001) (37, 1.50000000000000000000e+003) (38, 1.47596275806427000000e+000) (39, 1.50000000000000000000e+003) (40, 1.50000000000000000000e+003) (41, 1.51379239559173580000e+000) (42, 1.50000000000000000000e+003) (43, 5.07216119766235350000e+000) (44, 1.50000000000000000000e+003) (45, 1.88773560523986820000e+000) (46, 1.50000000000000000000e+003) (47, 9.29286897182464600000e-001) (48, 1.63214230537414550000e+000) (49, 1.50000000000000000000e+003) (50, 1.03143759071826930000e-001) (51, 1.50000000000000000000e+003) (52, 4.98939132690429690000e+000) (53, 1.50000000000000000000e+003) (54, 1.98431456089019780000e+000) (55, 1.50000000000000000000e+003) (56, 1.50000000000000000000e+003) (57, 3.05502510070800780000e+000) (58, 1.50000000000000000000e+003) (59, 2.71777486801147460000e+000) (60, 1.50000000000000000000e+003) (61, 1.35934710502624510000e+000) (62, 1.50000000000000000000e+003) (63, -4.09684091806411740000e-001) (64, 2.23427399992942810000e-001) (0, 2.00218677520751950000e+000) (1, 1.50000000000000000000e+003) (2, 3.38919520378112790000e+000) (3, 1.50000000000000000000e+003) (4, -2.05539655685424800000e+000) (5, 1.50000000000000000000e+003) (6, -7.17047750949859620000e-001) (7, 1.50000000000000000000e+003) (8, 1.50000000000000000000e+003) (9, -6.20406508445739750000e-001) (10, 1.50000000000000000000e+003) (11, -2.78019046783447270000e+000) (12, 1.50000000000000000000e+003) (13, 1.20431387424468990000e+000) (14, 1.50000000000000000000e+003) (15, 3.39211750030517580000e+000) (16, -6.71670615673065190000e-001) (17, 1.50000000000000000000e+003) (18, 2.14929413795471190000e+000) (19, 1.50000000000000000000e+003) (20, 2.02248787879943850000e+000) (21, 1.50000000000000000000e+003) (22, -4.74445432424545290000e-001) (23, 1.50000000000000000000e+003) (24, 1.50000000000000000000e+003) (25, -7.51371681690216060000e-001) (26, 1.50000000000000000000e+003) (27, 1.70317375659942630000e+000) (28, 1.50000000000000000000e+003) (29, 3.14392209053039550000e-001) (30, 1.50000000000000000000e+003) (31, 4.34861135482788090000e+000) (32, -8.76162946224212650000e-001) (33, 1.50000000000000000000e+003) (34, 1.19869124889373780000e+000) (35, 1.50000000000000000000e+003) (36, 2.70744872093200680000e+000) (37, 1.50000000000000000000e+003) (38, 9.91592466831207280000e-001) (39, 1.50000000000000000000e+003) (40, 1.50000000000000000000e+003) (41, -4.81201791763305660000e+000) (42, 1.50000000000000000000e+003) (43, -1.92315030097961430000e+000) (44, 1.50000000000000000000e+003) (45, 2.70693689584732060000e-001) (46, 1.50000000000000000000e+003) (47, 2.87289690971374510000e+000) (48, 3.73373568058013920000e-001) (49, 1.50000000000000000000e+003) (50, 7.01046288013458250000e-002) (51, 1.50000000000000000000e+003) (52, 9.54963937401771550000e-002) (53, 1.50000000000000000000e+003) (54, 2.90231299400329590000e+000) (55, 1.50000000000000000000e+003) (56, 1.50000000000000000000e+003) (57, 1.94846844673156740000e+000) (58, 1.50000000000000000000e+003) (59, 1.05688941478729250000e+000) (60, 1.50000000000000000000e+003) (61, 2.60274100303649900000e+000) (62, 1.50000000000000000000e+003) (63, 5.01408159732818600000e-001) (64, -3.99475097656250000000e-001) (0, 3.05407547950744630000e+000) (1, 1.50000000000000000000e+003) (2, 2.20864915847778320000e+000) (3, 1.50000000000000000000e+003) (4, 2.59727644920349120000e+000) (5, 1.50000000000000000000e+003) (6, 2.13213229179382320000e+000) (7, 1.50000000000000000000e+003) (8, 1.50000000000000000000e+003) (9, 1.05288870632648470000e-001) (10, 1.50000000000000000000e+003) (11, -1.11721191406250000000e+001) (12, 1.50000000000000000000e+003) (13, 1.56192910671234130000e+000) (14, 1.50000000000000000000e+003) (15, 5.85838735103607180000e-001) (16, 4.03438377380371090000e+000) (17, 1.50000000000000000000e+003) (18, 1.68607401847839360000e+000) (19, 1.50000000000000000000e+003) (20, 2.98492288589477540000e+000) (21, 1.50000000000000000000e+003) (22, -8.68125557899475100000e-001) (23, 1.50000000000000000000e+003) (24, 1.50000000000000000000e+003) (25, 1.47671014070510860000e-001) (26, 1.50000000000000000000e+003) (27, 2.37521171569824220000e+000) (28, 1.50000000000000000000e+003) (29, 7.92937099933624270000e-001) (30, 1.50000000000000000000e+003) (31, -1.17380487918853760000e+000) (32, 1.50428843498229980000e+000) (33, 1.50000000000000000000e+003) (34, 1.59798324108123780000e+000) (35, 1.50000000000000000000e+003) (36, -1.61034786701202390000e+000) (37, 1.50000000000000000000e+003) (38, 6.28497540950775150000e-001) (39, 1.50000000000000000000e+003) (40, 1.50000000000000000000e+003) (41, 1.75991880893707280000e+000) (42, 1.50000000000000000000e+003) (43, 3.00555944442749020000e+000) (44, 1.50000000000000000000e+003) (45, 2.02872943878173830000e+000) (46, 1.50000000000000000000e+003) (47, -1.90100193023681640000e-001) (48, -2.98472189903259280000e+000) (49, 1.50000000000000000000e+003) (50, 7.08483636379241940000e-001) (51, 1.50000000000000000000e+003) (52, -1.41771823167800900000e-001) (53, 1.50000000000000000000e+003) (54, 1.31632578372955320000e+000) (55, 1.50000000000000000000e+003) (56, 1.50000000000000000000e+003) (57, 2.00162839889526370000e+000) (58, 1.50000000000000000000e+003) (59, 3.71739721298217770000e+000) (60, 1.50000000000000000000e+003) (61, 2.10803985595703130000e+000) (62, 1.50000000000000000000e+003) (63, 4.91728353500366210000e+000) (64, -1.28166601061820980000e-001) (0, 1.46326708793640140000e+000) (1, 1.50000000000000000000e+003) (2, 1.21110796928405760000e+000) (3, 1.50000000000000000000e+003) (4, 3.66742539405822750000e+000) (5, 1.50000000000000000000e+003) (6, 1.73260971903800960000e-001) (7, 1.50000000000000000000e+003) (8, 1.50000000000000000000e+003) (9, -3.09401243925094600000e-001) (10, 1.50000000000000000000e+003) (11, 4.26141500473022460000e+000) (12, 1.50000000000000000000e+003) (13, 1.14320242404937740000e+000) (14, 1.50000000000000000000e+003) (15, -1.58275216817855830000e-001) (16, 7.34499916434288020000e-002) (17, 1.50000000000000000000e+003) (18, 1.04175257682800290000e+000) (19, 1.50000000000000000000e+003) (20, -1.57146430015563960000e+000) (21, 1.50000000000000000000e+003) (22, 1.95704698562622070000e-001) (23, 1.50000000000000000000e+003) (24, 1.50000000000000000000e+003) (25, 2.00309896469116210000e+000) (26, 1.50000000000000000000e+003) (27, 2.90342569351196290000e+000) (28, 1.50000000000000000000e+003) (29, -7.96496987342834470000e-001) (30, 1.50000000000000000000e+003) (31, 3.22342538833618160000e+000) (32, -7.64846265316009520000e-001) (33, 1.50000000000000000000e+003) (34, 6.33442699909210210000e-001) (35, 1.50000000000000000000e+003) (36, 1.83303034305572510000e+000) (37, 1.50000000000000000000e+003) (38, 3.34471553564071660000e-001) (39, 1.50000000000000000000e+003) (40, 1.50000000000000000000e+003) (41, 1.81536686420440670000e+000) (42, 1.50000000000000000000e+003) (43, 2.44352316856384280000e+000) (44, 1.50000000000000000000e+003) (45, 4.22526746988296510000e-001) (46, 1.50000000000000000000e+003) (47, 3.76788496971130370000e-001) (48, 2.28207302093505860000e+000) (49, 1.50000000000000000000e+003) (50, 1.83374249935150150000e+000) (51, 1.50000000000000000000e+003) (52, 1.81387281417846680000e+000) (53, 1.50000000000000000000e+003) (54, 1.52508831024169920000e+000) (55, 1.50000000000000000000e+003) (56, 1.50000000000000000000e+003) (57, 2.42311930656433110000e+000) (58, 1.50000000000000000000e+003) (59, 5.00771850347518920000e-002) (60, 1.50000000000000000000e+003) (61, 3.26975464820861820000e-001) (62, 1.50000000000000000000e+003) (63, 9.21622335910797120000e-001) (64, 1.73849177360534670000e+000) (0, 2.79440498352050780000e+000) (1, 1.50000000000000000000e+003) (2, 3.13662290573120120000e+000) (3, 1.50000000000000000000e+003) (4, 1.47103428840637210000e+000) (5, 1.50000000000000000000e+003) (6, 2.40067911148071290000e+000) (7, 1.50000000000000000000e+003) (8, 1.50000000000000000000e+003) (9, 2.59223175048828120000e+000) (10, 1.50000000000000000000e+003) (11, 1.79709947109222410000e+000) (12, 1.50000000000000000000e+003) (13, -7.58821293711662290000e-002) (14, 1.50000000000000000000e+003) (15, 5.40341377258300780000e-001) (16, 2.97008490562438960000e+000) (17, 1.50000000000000000000e+003) (18, 1.75314784049987790000e+000) (19, 1.50000000000000000000e+003) (20, -9.41827520728111270000e-002) (21, 1.50000000000000000000e+003) (22, -1.32018074393272400000e-001) (23, 1.50000000000000000000e+003) (24, 1.50000000000000000000e+003) (25, -3.04379701614379880000e-001) (26, 1.50000000000000000000e+003) (27, 2.37250518798828130000e+000) (28, 1.50000000000000000000e+003) (29, 2.12813407182693480000e-001) (30, 1.50000000000000000000e+003) (31, -1.28378774970769880000e-002) (32, 4.82020638883113860000e-002) (33, 1.50000000000000000000e+003) (34, 2.71429753303527830000e+000) (35, 1.50000000000000000000e+003) (36, 2.54221653938293460000e+000) (37, 1.50000000000000000000e+003) (38, 2.00977468490600590000e+000) (39, 1.50000000000000000000e+003) (40, 1.50000000000000000000e+003) (41, -3.97740006446838380000e-002) (42, 1.50000000000000000000e+003) (43, 1.89819777011871340000e+000) (44, 1.50000000000000000000e+003) (45, 1.87497639656066890000e+000) (46, 1.50000000000000000000e+003) (47, 2.43984055519104000000e+000) (48, -2.75100953876972200000e-002) (49, 1.50000000000000000000e+003) (50, 5.84950745105743410000e-002) (51, 1.50000000000000000000e+003) (52, 1.44761018455028530000e-002) (53, 1.50000000000000000000e+003) (54, 1.97069096565246580000e+000) (55, 1.50000000000000000000e+003) (56, 1.50000000000000000000e+003) (57, 5.87249279022216800000e-001) (58, 1.50000000000000000000e+003) (59, 1.81546223163604740000e+000) (60, 1.50000000000000000000e+003) (61, 3.41550660133361820000e+000) (62, 1.50000000000000000000e+003) (63, 2.39556193351745610000e+000) (64, -5.43267130851745610000e-001) (0, 2.39204239845275880000e+000) (1, 1.50000000000000000000e+003) (2, 2.66259741783142090000e+000) (3, 1.50000000000000000000e+003) (4, 3.24839186668396000000e+000) (5, 1.50000000000000000000e+003) (6, 2.54962253570556640000e+000) (7, 1.50000000000000000000e+003) (8, 1.50000000000000000000e+003) (9, 2.57618260383605960000e+000) (10, 1.50000000000000000000e+003) (11, 4.07960832118988040000e-001) (12, 1.50000000000000000000e+003) (13, 2.47853040695190430000e+000) (14, 1.50000000000000000000e+003) (15, 2.95354127883911130000e-001) (16, 1.93188047409057620000e+000) (17, 1.50000000000000000000e+003) (18, 2.86150550842285160000e+000) (19, 1.50000000000000000000e+003) (20, 1.33716499805450440000e+000) (21, 1.50000000000000000000e+003) (22, -4.58354443311691280000e-001) (23, 1.50000000000000000000e+003) (24, 1.50000000000000000000e+003) (25, -9.85384508967399600000e-002) (26, 1.50000000000000000000e+003) (27, 2.66401219367980960000e+000) (28, 1.50000000000000000000e+003) (29, 2.48498988151550290000e+000) (30, 1.50000000000000000000e+003) (31, -2.43934825062751770000e-001) (32, 2.54306697845458980000e+000) (33, 1.50000000000000000000e+003) (34, 2.51073503494262700000e+000) (35, 1.50000000000000000000e+003) (36, 1.80023565888404850000e-001) (37, 1.50000000000000000000e+003) (38, -4.61926102638244630000e-001) (39, 1.50000000000000000000e+003) (40, 1.50000000000000000000e+003) (41, -1.75806418061256410000e-001) (42, 1.50000000000000000000e+003) (43, -4.49755368754267690000e-003) (44, 1.50000000000000000000e+003) (45, 8.11741054058074950000e-001) (46, 1.50000000000000000000e+003) (47, -1.14038065075874330000e-001) (48, 1.36870190501213070000e-001) (49, 1.50000000000000000000e+003) (50, -2.64176279306411740000e-002) (51, 1.50000000000000000000e+003) (52, 7.65512168407440190000e-001) (53, 1.50000000000000000000e+003) (54, 2.62189912796020510000e+000) (55, 1.50000000000000000000e+003) (56, 1.50000000000000000000e+003) (57, -1.67590472847223280000e-002) (58, 1.50000000000000000000e+003) (59, -2.51884639263153080000e-001) (60, 1.50000000000000000000e+003) (61, -5.74644267559051510000e-001) (62, 1.50000000000000000000e+003) (63, 1.02261684834957120000e-001) (64, -1.09684002399444580000e+000) (0, 1.68390822410583500000e+000) (1, 1.50000000000000000000e+003) (2, 7.77885854244232180000e-001) (3, 1.50000000000000000000e+003) (4, 2.87701463699340820000e+000) (5, 1.50000000000000000000e+003) (6, 3.17830651998519900000e-001) (7, 1.50000000000000000000e+003) (8, 1.50000000000000000000e+003) (9, 1.09770667552948000000e+000) (10, 1.50000000000000000000e+003) (11, 1.71343553066253660000e+000) (12, 1.50000000000000000000e+003) (13, 1.49569940567016600000e+000) (14, 1.50000000000000000000e+003) (15, -1.96298432350158690000e+000) (16, -3.98321926593780520000e-001) (17, 1.50000000000000000000e+003) (18, 8.21729421615600590000e-001) (19, 1.50000000000000000000e+003) (20, 2.38479137420654300000e+000) (21, 1.50000000000000000000e+003) (22, -3.19976925849914550000e-001) (23, 1.50000000000000000000e+003) (24, 1.50000000000000000000e+003) (25, 3.59202057123184200000e-001) (26, 1.50000000000000000000e+003) (27, 1.18195319175720210000e+000) (28, 1.50000000000000000000e+003) (29, 2.84879297018051150000e-001) (30, 1.50000000000000000000e+003) (31, -2.08830904960632320000e+000) (32, -3.84521819651126860000e-002) (33, 1.50000000000000000000e+003) (34, 2.89361178874969480000e-001) (35, 1.50000000000000000000e+003) (36, 2.17356777191162110000e+000) (37, 1.50000000000000000000e+003) (38, 1.43352508544921880000e+000) (39, 1.50000000000000000000e+003) (40, 1.50000000000000000000e+003) (41, 2.88931345939636230000e+000) (42, 1.50000000000000000000e+003) (43, 3.96408498287200930000e-001) (44, 1.50000000000000000000e+003) (45, -4.89001125097274780000e-001) (46, 1.50000000000000000000e+003) (47, 1.31895005702972410000e+000) (48, 5.55655434727668760000e-002) (49, 1.50000000000000000000e+003) (50, -5.96637904644012450000e-001) (51, 1.50000000000000000000e+003) (52, 1.39849412441253660000e+000) (53, 1.50000000000000000000e+003) (54, 5.15486574172973630000e+000) (55, 1.50000000000000000000e+003) (56, 1.50000000000000000000e+003) (57, 2.42923450469970700000e+000) (58, 1.50000000000000000000e+003) (59, 3.69791448116302490000e-001) (60, 1.50000000000000000000e+003) (61, 2.31596541404724120000e+000) (62, 1.50000000000000000000e+003) (63, -3.53351593017578130000e-001) (64, -1.59608364105224610000e-001) (0, -1.91709625720977780000e+000) (1, 1.50000000000000000000e+003) (2, 2.78468012809753420000e+000) (3, 1.50000000000000000000e+003) (4, -7.96866178512573240000e-001) (5, 1.50000000000000000000e+003) (6, 1.60606491565704350000e+000) (7, 1.50000000000000000000e+003) (8, 1.50000000000000000000e+003) (9, 9.09516930580139160000e-001) (10, 1.50000000000000000000e+003) (11, -1.44966065883636470000e+000) (12, 1.50000000000000000000e+003) (13, 2.31915593147277830000e+000) (14, 1.50000000000000000000e+003) (15, 1.29027104377746580000e+000) (16, 3.77531647682189940000e-001) (17, 1.50000000000000000000e+003) (18, 2.47130393981933590000e+000) (19, 1.50000000000000000000e+003) (20, 7.08733081817626950000e-001) (21, 1.50000000000000000000e+003) (22, 1.57609617710113530000e+000) (23, 1.50000000000000000000e+003) (24, 1.50000000000000000000e+003) (25, 6.29581272602081300000e-001) (26, 1.50000000000000000000e+003) (27, 2.28638815879821780000e+000) (28, 1.50000000000000000000e+003) (29, 5.07886826992034910000e-001) (30, 1.50000000000000000000e+003) (31, 2.21463632583618160000e+000) (32, 5.79975962638854980000e-001) (33, 1.50000000000000000000e+003) (34, 1.59398639202117920000e+000) (35, 1.50000000000000000000e+003) (36, 1.45609200000762940000e+000) (37, 1.50000000000000000000e+003) (38, 1.94438084959983830000e-001) (39, 1.50000000000000000000e+003) (40, 1.50000000000000000000e+003) (41, 5.30080676078796390000e-001) (42, 1.50000000000000000000e+003) (43, 1.90429902076721190000e+000) (44, 1.50000000000000000000e+003) (45, 6.77927136421203610000e-001) (46, 1.50000000000000000000e+003) (47, 7.96365320682525630000e-001) (48, -1.22102238237857820000e-002) (49, 1.50000000000000000000e+003) (50, 7.00706362724304200000e-001) (51, 1.50000000000000000000e+003) (52, -3.55694025754928590000e-001) (53, 1.50000000000000000000e+003) (54, 1.72614955902099610000e+000) (55, 1.50000000000000000000e+003) (56, 1.50000000000000000000e+003) (57, 3.37086111307144170000e-001) (58, 1.50000000000000000000e+003) (59, 6.68312489986419680000e-001) (60, 1.50000000000000000000e+003) (61, 6.75119638442993160000e-001) (62, 1.50000000000000000000e+003) (63, 2.90991246700286870000e-001) (64, 7.44675844907760620000e-002) (0, 2.85732889175415040000e+000) (1, 1.50000000000000000000e+003) (2, 1.62382042407989500000e+000) (3, 1.50000000000000000000e+003) (4, 1.16156160831451420000e+000) (5, 1.50000000000000000000e+003) (6, 2.61843466758728030000e+000) (7, 1.50000000000000000000e+003) (8, 1.50000000000000000000e+003) (9, -3.72565239667892460000e-001) (10, 1.50000000000000000000e+003) (11, -1.04157857596874240000e-001) (12, 1.50000000000000000000e+003) (13, 2.42529010772705080000e+000) (14, 1.50000000000000000000e+003) (15, 1.56913566589355470000e+000) (16, 1.78131937980651860000e+000) (17, 1.50000000000000000000e+003) (18, 4.77629184722900390000e-001) (19, 1.50000000000000000000e+003) (20, 4.02706563472747800000e-001) (21, 1.50000000000000000000e+003) (22, 2.15501832962036130000e+000) (23, 1.50000000000000000000e+003) (24, 1.50000000000000000000e+003) (25, 3.60167548060417180000e-002) (26, 1.50000000000000000000e+003) (27, 1.89123249053955080000e+000) (28, 1.50000000000000000000e+003) (29, 1.85072600841522220000e+000) (30, 1.50000000000000000000e+003) (31, 8.35245370864868160000e-001) (32, 8.67684930562973020000e-002) (33, 1.50000000000000000000e+003) (34, 1.42171216011047360000e+000) (35, 1.50000000000000000000e+003) (36, 2.02917861938476560000e+000) (37, 1.50000000000000000000e+003) (38, 1.50913834571838380000e+000) (39, 1.50000000000000000000e+003) (40, 1.50000000000000000000e+003) (41, 2.46280026435852050000e+000) (42, 1.50000000000000000000e+003) (43, 1.06683373451232910000e+000) (44, 1.50000000000000000000e+003) (45, 5.03179669380187990000e-001) (46, 1.50000000000000000000e+003) (47, 2.04169917106628420000e+000) (48, 2.05591869354248050000e+000) (49, 1.50000000000000000000e+003) (50, 2.07023811340332030000e+000) (51, 1.50000000000000000000e+003) (52, 1.50148129463195800000e+000) (53, 1.50000000000000000000e+003) (54, 2.47848963737487790000e+000) (55, 1.50000000000000000000e+003) (56, 1.50000000000000000000e+003) (57, 6.16262853145599370000e-002) (58, 1.50000000000000000000e+003) (59, 1.74524080753326420000e+000) (60, 1.50000000000000000000e+003) (61, 7.02759563922882080000e-001) (62, 1.50000000000000000000e+003) (63, 2.19480013847351070000e+000) (64, -3.42746526002883910000e-001) (0, 1.37689077854156490000e+000) (1, 1.50000000000000000000e+003) (2, 4.68280982971191410000e+000) (3, 1.50000000000000000000e+003) (4, 9.35407057404518130000e-002) (5, 1.50000000000000000000e+003) (6, 9.90431785583496090000e-001) (7, 1.50000000000000000000e+003) (8, 1.50000000000000000000e+003) (9, 7.96016454696655270000e-001) (10, 1.50000000000000000000e+003) (11, 7.84691274166107180000e-001) (12, 1.50000000000000000000e+003) (13, 1.45914697647094730000e+000) (14, 1.50000000000000000000e+003) (15, 1.99470090866088870000e+000) (16, 2.05834627151489260000e+000) (17, 1.50000000000000000000e+003) (18, 1.63170099258422850000e+000) (19, 1.50000000000000000000e+003) (20, 1.13384330272674560000e+000) (21, 1.50000000000000000000e+003) (22, 4.57804769277572630000e-001) (23, 1.50000000000000000000e+003) (24, 1.50000000000000000000e+003) (25, 2.14580014348030090000e-001) (26, 1.50000000000000000000e+003) (27, -3.27060842514038090000e+000) (28, 1.50000000000000000000e+003) (29, 1.88697922229766850000e+000) (30, 1.50000000000000000000e+003) (31, 1.04633891582489010000e+000) (32, 1.89002013206481930000e+000) (33, 1.50000000000000000000e+003) (34, 1.86766684055328370000e+000) (35, 1.50000000000000000000e+003) (36, 1.66962742805480960000e+000) (37, 1.50000000000000000000e+003) (38, 2.45961412787437440000e-001) (39, 1.50000000000000000000e+003) (40, 1.50000000000000000000e+003) (41, 1.54669702053070070000e+000) (42, 1.50000000000000000000e+003) (43, 2.95547175407409670000e+000) (44, 1.50000000000000000000e+003) (45, 8.05909574031829830000e-001) (46, 1.50000000000000000000e+003) (47, -2.05327421426773070000e-001) (48, 1.73529994487762450000e+000) (49, 1.50000000000000000000e+003) (50, 1.31667661666870120000e+000) (51, 1.50000000000000000000e+003) (52, 3.46678328514099120000e+000) (53, 1.50000000000000000000e+003) (54, 1.40967047214508060000e+000) (55, 1.50000000000000000000e+003) (56, 1.50000000000000000000e+003) (57, 3.24428707361221310000e-001) (58, 1.50000000000000000000e+003) (59, 1.68526399135589600000e+000) (60, 1.50000000000000000000e+003) (61, 1.95916032791137700000e+000) (62, 1.50000000000000000000e+003) (63, 8.42358350753784180000e-001) (64, 1.01956143975257870000e-001) (0, 2.10422539710998540000e+000) (1, 1.50000000000000000000e+003) (2, 3.45201373100280760000e-001) (3, 1.50000000000000000000e+003) (4, 4.58669722080230710000e-001) (5, 1.50000000000000000000e+003) (6, 2.25916600227355960000e+000) (7, 1.50000000000000000000e+003) (8, 1.50000000000000000000e+003) (9, 4.33505415916442870000e-001) (10, 1.50000000000000000000e+003) (11, 1.24528324604034420000e+000) (12, 1.50000000000000000000e+003) (13, 2.29262900352478030000e+000) (14, 1.50000000000000000000e+003) (15, -1.03499841690063480000e+000) (16, -5.08040845394134520000e-001) (17, 1.50000000000000000000e+003) (18, 4.92065578699111940000e-001) (19, 1.50000000000000000000e+003) (20, -1.34070456027984620000e-001) (21, 1.50000000000000000000e+003) (22, 3.68263661861419680000e-001) (23, 1.50000000000000000000e+003) (24, 1.50000000000000000000e+003) (25, 2.22756098955869670000e-002) (26, 1.50000000000000000000e+003) (27, 4.10366201400756840000e+000) (28, 1.50000000000000000000e+003) (29, -2.83337503671646120000e-001) (30, 1.50000000000000000000e+003) (31, 1.09581410884857180000e-001) (32, -3.25946778059005740000e-001) (33, 1.50000000000000000000e+003) (34, 2.23121476173400880000e+000) (35, 1.50000000000000000000e+003) (36, 2.59661190211772920000e-002) (37, 1.50000000000000000000e+003) (38, 2.39321327209472660000e+000) (39, 1.50000000000000000000e+003) (40, 1.50000000000000000000e+003) (41, 2.53736901283264160000e+000) (42, 1.50000000000000000000e+003) (43, 2.56191175431013110000e-002) (44, 1.50000000000000000000e+003) (45, -3.85585516691207890000e-001) (46, 1.50000000000000000000e+003) (47, 2.81680583953857420000e+000) (48, -1.80376410484313960000e-001) (49, 1.50000000000000000000e+003) (50, 2.65251946449279790000e+000) (51, 1.50000000000000000000e+003) (52, 2.90251207351684570000e+000) (53, 1.50000000000000000000e+003) (54, 2.72851967811584470000e+000) (55, 1.50000000000000000000e+003) (56, 1.50000000000000000000e+003) (57, -3.01325350999832150000e-001) (58, 1.50000000000000000000e+003) (59, 2.56533646583557130000e+000) (60, 1.50000000000000000000e+003) (61, 2.54876255989074710000e+000) (62, 1.50000000000000000000e+003) (63, 2.70313549041748050000e+000) (64, 2.01483225822448730000e+000) (0, 4.85410541296005250000e-002) (1, 1.50000000000000000000e+003) (2, 3.15639805793762210000e+000) (3, 1.50000000000000000000e+003) (4, -5.66591680049896240000e-001) (5, 1.50000000000000000000e+003) (6, -3.05349081754684450000e-001) (7, 1.50000000000000000000e+003) (8, 1.50000000000000000000e+003) (9, 2.52990365028381350000e+000) (10, 1.50000000000000000000e+003) (11, 1.80030286312103270000e+000) (12, 1.50000000000000000000e+003) (13, 4.30051088333129880000e-001) (14, 1.50000000000000000000e+003) (15, 3.99780541658401490000e-001) (16, 2.10410952568054200000e+000) (17, 1.50000000000000000000e+003) (18, 2.52784872055053710000e+000) (19, 1.50000000000000000000e+003) (20, 1.94606053829193120000e+000) (21, 1.50000000000000000000e+003) (22, 1.96822071075439450000e+000) (23, 1.50000000000000000000e+003) (24, 1.50000000000000000000e+003) (25, 4.65972349047660830000e-002) (26, 1.50000000000000000000e+003) (27, 4.47492837905883790000e-001) (28, 1.50000000000000000000e+003) (29, 2.59620499610900880000e+000) (30, 1.50000000000000000000e+003) (31, 1.15418934822082520000e+000) (32, -2.63178169727325440000e-001) (33, 1.50000000000000000000e+003) (34, 3.68480294942855830000e-001) (35, 1.50000000000000000000e+003) (36, 2.63542985916137700000e+000) (37, 1.50000000000000000000e+003) (38, 2.42076849937438960000e+000) (39, 1.50000000000000000000e+003) (40, 1.50000000000000000000e+003) (41, -1.48193642497062680000e-001) (42, 1.50000000000000000000e+003) (43, 1.44561183452606200000e+000) (44, 1.50000000000000000000e+003) (45, 1.83122301101684570000e+000) (46, 1.50000000000000000000e+003) (47, -3.93201828002929690000e-001) (48, -2.50712752342224120000e-001) (49, 1.50000000000000000000e+003) (50, -6.79798657074570660000e-003) (51, 1.50000000000000000000e+003) (52, -9.02181938290596010000e-002) (53, 1.50000000000000000000e+003) (54, 2.32971739768981930000e+000) (55, 1.50000000000000000000e+003) (56, 1.50000000000000000000e+003) (57, 1.98513352870941160000e+000) (58, 1.50000000000000000000e+003) (59, 1.38575303554534910000e+000) (60, 1.50000000000000000000e+003) (61, 8.47205102443695070000e-001) (62, 1.50000000000000000000e+003) (63, 2.14843750000000000000e+000) (64, 1.97240841388702390000e+000) (0, 4.84096956253051760000e+000) (1, 1.50000000000000000000e+003) (2, 3.02237224578857420000e+000) (3, 1.50000000000000000000e+003) (4, -4.03195172548294070000e-001) (5, 1.50000000000000000000e+003) (6, 1.61997509002685550000e+000) (7, 1.50000000000000000000e+003) (8, 1.50000000000000000000e+003) (9, 2.23881936073303220000e+000) (10, 1.50000000000000000000e+003) (11, 6.84586286544799800000e+000) (12, 1.50000000000000000000e+003) (13, 1.65716338157653810000e+000) (14, 1.50000000000000000000e+003) (15, -1.93273520469665530000e+000) (16, 1.39422917366027830000e+000) (17, 1.50000000000000000000e+003) (18, 7.54102468490600590000e-001) (19, 1.50000000000000000000e+003) (20, 3.07573175430297850000e+000) (21, 1.50000000000000000000e+003) (22, 1.66681730747222900000e+000) (23, 1.50000000000000000000e+003) (24, 1.50000000000000000000e+003) (25, 2.72236514091491700000e+000) (26, 1.50000000000000000000e+003) (27, 4.07220220565795900000e+000) (28, 1.50000000000000000000e+003) (29, 2.11181342601776120000e-001) (30, 1.50000000000000000000e+003) (31, -8.81189584732055660000e-001) (32, -1.05598203837871550000e-001) (33, 1.50000000000000000000e+003) (34, 1.05976009368896480000e+000) (35, 1.50000000000000000000e+003) (36, 1.65372121334075930000e+000) (37, 1.50000000000000000000e+003) (38, 1.08037781715393070000e+000) (39, 1.50000000000000000000e+003) (40, 1.50000000000000000000e+003) (41, 1.08320629596710210000e+000) (42, 1.50000000000000000000e+003) (43, 1.33396780490875240000e+000) (44, 1.50000000000000000000e+003) (45, 9.16758403182029720000e-002) (46, 1.50000000000000000000e+003) (47, 2.46963596343994140000e+000) (48, -5.10390222072601320000e-001) (49, 1.50000000000000000000e+003) (50, 1.80841338634490970000e+000) (51, 1.50000000000000000000e+003) (52, 7.28296041488647460000e-001) (53, 1.50000000000000000000e+003) (54, 2.58081126213073730000e+000) (55, 1.50000000000000000000e+003) (56, 1.50000000000000000000e+003) (57, 2.88108199834823610000e-001) (58, 1.50000000000000000000e+003) (59, 2.08667802810668950000e+000) (60, 1.50000000000000000000e+003) (61, 2.46832394599914550000e+000) (62, 1.50000000000000000000e+003) (63, 9.74439799785614010000e-001) (64, 2.09263458847999570000e-001) (0, 2.40320014953613280000e+000) (1, 1.50000000000000000000e+003) (2, 3.94945323467254640000e-001) (3, 1.50000000000000000000e+003) (4, -9.53076303005218510000e-001) (5, 1.50000000000000000000e+003) (6, 1.26656091213226320000e+000) (7, 1.50000000000000000000e+003) (8, 1.50000000000000000000e+003) (9, 1.60959696769714360000e+000) (10, 1.50000000000000000000e+003) (11, 2.15841174125671390000e+000) (12, 1.50000000000000000000e+003) (13, 1.88640666007995610000e+000) (14, 1.50000000000000000000e+003) (15, -1.49791991710662840000e+000) (16, 1.51872992515563960000e+000) (17, 1.50000000000000000000e+003) (18, 7.10772722959518430000e-002) (19, 1.50000000000000000000e+003) (20, 9.41392183303833010000e-001) (21, 1.50000000000000000000e+003) (22, 1.51562786102294920000e+000) (23, 1.50000000000000000000e+003) (24, 1.50000000000000000000e+003) (25, 2.14617323875427250000e+000) (26, 1.50000000000000000000e+003) (27, 3.45407456159591670000e-001) (28, 1.50000000000000000000e+003) (29, 1.22497880458831790000e+000) (30, 1.50000000000000000000e+003) (31, -3.26187945902347560000e-002) (32, -1.08685813844203950000e-001) (33, 1.50000000000000000000e+003) (34, 8.88624846935272220000e-001) (35, 1.50000000000000000000e+003) (36, 1.66025078296661380000e+000) (37, 1.50000000000000000000e+003) (38, 3.86021852493286130000e-001) (39, 1.50000000000000000000e+003) (40, 1.50000000000000000000e+003) (41, 1.39267408847808840000e+000) (42, 1.50000000000000000000e+003) (43, 1.33750474452972410000e+000) (44, 1.50000000000000000000e+003) (45, -4.75733220577239990000e-001) (46, 1.50000000000000000000e+003) (47, 9.09659862518310550000e-001) (48, 1.45008295774459840000e-001) (49, 1.50000000000000000000e+003) (50, 2.43036794662475590000e+000) (51, 1.50000000000000000000e+003) (52, 3.11806440353393550000e+000) (53, 1.50000000000000000000e+003) (54, 1.03442895412445070000e+000) (55, 1.50000000000000000000e+003) (56, 1.50000000000000000000e+003) (57, 5.19555568695068360000e-001) (58, 1.50000000000000000000e+003) (59, 7.59207069873809810000e-001) (60, 1.50000000000000000000e+003) (61, -1.73546940088272090000e-001) (62, 1.50000000000000000000e+003) (63, 1.88786733150482180000e+000) (64, -7.88444876670837400000e-001) (0, 2.14564752578735350000e+000) (1, 1.50000000000000000000e+003) (2, 3.08025693893432620000e+000) (3, 1.50000000000000000000e+003) (4, 1.90307021141052250000e+000) (5, 1.50000000000000000000e+003) (6, 1.92742240428924560000e+000) (7, 1.50000000000000000000e+003) (8, 1.50000000000000000000e+003) (9, 1.89098894596099850000e+000) (10, 1.50000000000000000000e+003) (11, 8.33880901336669920000e-001) (12, 1.50000000000000000000e+003) (13, 2.47682905197143550000e+000) (14, 1.50000000000000000000e+003) (15, 7.71125912666320800000e-001) (16, 5.41487693786621090000e-001) (17, 1.50000000000000000000e+003) (18, 1.93763828277587890000e+000) (19, 1.50000000000000000000e+003) (20, 1.23106622695922850000e+000) (21, 1.50000000000000000000e+003) (22, 1.13164234161376950000e+000) (23, 1.50000000000000000000e+003) (24, 1.50000000000000000000e+003) (25, 2.04445624351501460000e+000) (26, 1.50000000000000000000e+003) (27, -1.93964028358459470000e+000) (28, 1.50000000000000000000e+003) (29, 1.16116178035736080000e+000) (30, 1.50000000000000000000e+003) (31, 7.57071018218994140000e-001) (32, 9.81876075267791750000e-001) (33, 1.50000000000000000000e+003) (34, 1.23611569404602050000e+000) (35, 1.50000000000000000000e+003) (36, -2.18644440174102780000e-001) (37, 1.50000000000000000000e+003) (38, 1.32447525858879090000e-001) (39, 1.50000000000000000000e+003) (40, 1.50000000000000000000e+003) (41, 1.56530165672302250000e+000) (42, 1.50000000000000000000e+003) (43, 2.04332304000854490000e+000) (44, 1.50000000000000000000e+003) (45, 1.88993692398071290000e+000) (46, 1.50000000000000000000e+003) (47, 1.00313568115234370000e+000) (48, 3.68818342685699460000e-001) (49, 1.50000000000000000000e+003) (50, 1.36741101741790770000e+000) (51, 1.50000000000000000000e+003) (52, 1.28372907638549800000e+000) (53, 1.50000000000000000000e+003) (54, 1.95971810817718510000e+000) (55, 1.50000000000000000000e+003) (56, 1.50000000000000000000e+003) (57, 2.01314520835876460000e+000) (58, 1.50000000000000000000e+003) (59, 1.30653107166290280000e+000) (60, 1.50000000000000000000e+003) (61, 2.15278196334838870000e+000) (62, 1.50000000000000000000e+003) (63, -1.12828902900218960000e-001) (64, -5.68092226982116700000e-001) (0, 3.16153168678283690000e+000) (1, 1.50000000000000000000e+003) (2, 1.60506260395050050000e+000) (3, 1.50000000000000000000e+003) (4, 2.56763267517089840000e+000) (5, 1.50000000000000000000e+003) (6, 1.62286949157714840000e+000) (7, 1.50000000000000000000e+003) (8, 1.50000000000000000000e+003) (9, 2.02684426307678220000e+000) (10, 1.50000000000000000000e+003) (11, 2.39095234870910640000e+000) (12, 1.50000000000000000000e+003) (13, 1.55844676494598390000e+000) (14, 1.50000000000000000000e+003) (15, 2.29884058237075810000e-001) (16, 2.27224397659301760000e+000) (17, 1.50000000000000000000e+003) (18, 1.98769104480743410000e+000) (19, 1.50000000000000000000e+003) (20, 1.33486449718475340000e-001) (21, 1.50000000000000000000e+003) (22, 6.74339115619659420000e-001) (23, 1.50000000000000000000e+003) (24, 1.50000000000000000000e+003) (25, -7.26491436362266540000e-002) (26, 1.50000000000000000000e+003) (27, 2.95382809638977050000e+000) (28, 1.50000000000000000000e+003) (29, 6.13690137863159180000e-001) (30, 1.50000000000000000000e+003) (31, 1.91922307014465330000e-001) (32, 2.35083293914794920000e+000) (33, 1.50000000000000000000e+003) (34, 2.05859041213989260000e+000) (35, 1.50000000000000000000e+003) (36, 9.40253615379333500000e-001) (37, 1.50000000000000000000e+003) (38, 3.31667512655258180000e-002) (39, 1.50000000000000000000e+003) (40, 1.50000000000000000000e+003) (41, 8.35512816905975340000e-001) (42, 1.50000000000000000000e+003) (43, 1.41227793693542480000e+000) (44, 1.50000000000000000000e+003) (45, 1.84428703784942630000e+000) (46, 1.50000000000000000000e+003) (47, 2.78536319732666020000e-001) (48, 2.15527200698852540000e+000) (49, 1.50000000000000000000e+003) (50, 1.74477255344390870000e+000) (51, 1.50000000000000000000e+003) (52, 1.21291112899780270000e+000) (53, 1.50000000000000000000e+003) (54, 3.01044893264770510000e+000) (55, 1.50000000000000000000e+003) (56, 1.50000000000000000000e+003) (57, 2.20462965965271000000e+000) (58, 1.50000000000000000000e+003) (59, 2.39201569557189940000e+000) (60, 1.50000000000000000000e+003) (61, 1.15277075767517090000e+000) (62, 1.50000000000000000000e+003) (63, 3.22964692115783690000e+000) (64, -1.19335323572158810000e-001) (0, 2.94711732864379880000e+000) (1, 1.50000000000000000000e+003) (2, 1.19366610050201420000e+000) (3, 1.50000000000000000000e+003) (4, 1.73443770408630370000e+000) (5, 1.50000000000000000000e+003) (6, 2.26364493370056150000e+000) (7, 1.50000000000000000000e+003) (8, 1.50000000000000000000e+003) (9, 1.99251508712768550000e+000) (10, 1.50000000000000000000e+003) (11, 1.39769709110260010000e+000) (12, 1.50000000000000000000e+003) (13, 1.31506502628326420000e+000) (14, 1.50000000000000000000e+003) (15, 1.00011646747589110000e+000) (16, 2.92736744880676270000e+000) (17, 1.50000000000000000000e+003) (18, 1.18102991580963130000e+000) (19, 1.50000000000000000000e+003) (20, -1.72784507274627690000e-001) (21, 1.50000000000000000000e+003) (22, -9.21595156192779540000e-001) (23, 1.50000000000000000000e+003) (24, 1.50000000000000000000e+003) (25, -3.71219754219055180000e-001) (26, 1.50000000000000000000e+003) (27, -2.43143606185913090000e+000) (28, 1.50000000000000000000e+003) (29, -3.58113735914230350000e-001) (30, 1.50000000000000000000e+003) (31, 4.10581558942794800000e-001) (32, -2.04843264073133470000e-002) (33, 1.50000000000000000000e+003) (34, 2.58218622207641600000e+000) (35, 1.50000000000000000000e+003) (36, 2.77339720726013180000e+000) (37, 1.50000000000000000000e+003) (38, 2.19454431533813480000e+000) (39, 1.50000000000000000000e+003) (40, 1.50000000000000000000e+003) (41, -2.98087149858474730000e-001) (42, 1.50000000000000000000e+003) (43, 4.82178013771772380000e-003) (44, 1.50000000000000000000e+003) (45, 2.32618188858032230000e+000) (46, 1.50000000000000000000e+003) (47, 1.01481199264526370000e+000) (48, -3.36613655090332030000e-001) (49, 1.50000000000000000000e+003) (50, 2.16218638420104980000e+000) (51, 1.50000000000000000000e+003) (52, 1.40463125705718990000e+000) (53, 1.50000000000000000000e+003) (54, 8.03222119808197020000e-001) (55, 1.50000000000000000000e+003) (56, 1.50000000000000000000e+003) (57, 3.03170792758464810000e-002) (58, 1.50000000000000000000e+003) (59, 2.47514533996582030000e+000) (60, 1.50000000000000000000e+003) (61, 7.98260450363159180000e-001) (62, 1.50000000000000000000e+003) (63, 2.57379674911499020000e+000) (64, -1.04829156398773190000e+000) (0, -1.16510140895843510000e+000) (1, 1.50000000000000000000e+003) (2, 9.42518174648284910000e-001) (3, 1.50000000000000000000e+003) (4, 1.60138630867004390000e+000) (5, 1.50000000000000000000e+003) (6, 2.49314689636230470000e+000) (7, 1.50000000000000000000e+003) (8, 1.50000000000000000000e+003) (9, 9.16389584541320800000e-001) (10, 1.50000000000000000000e+003) (11, 1.76768541336059570000e+000) (12, 1.50000000000000000000e+003) (13, 1.45279860496521000000e+000) (14, 1.50000000000000000000e+003) (15, 1.72005450725555420000e+000) (16, 1.55933225154876710000e+000) (17, 1.50000000000000000000e+003) (18, 1.19213545322418210000e+000) (19, 1.50000000000000000000e+003) (20, 8.83556067943573000000e-001) (21, 1.50000000000000000000e+003) (22, 1.40150594711303710000e+000) (23, 1.50000000000000000000e+003) (24, 1.50000000000000000000e+003) (25, 7.38206505775451660000e-001) (26, 1.50000000000000000000e+003) (27, 1.83782958984375000000e+000) (28, 1.50000000000000000000e+003) (29, 2.67042160034179690000e-001) (30, 1.50000000000000000000e+003) (31, 1.21220993995666500000e+000) (32, 8.86559009552001950000e-001) (33, 1.50000000000000000000e+003) (34, 2.66021943092346190000e+000) (35, 1.50000000000000000000e+003) (36, 6.93341255187988280000e-001) (37, 1.50000000000000000000e+003) (38, 1.96304595470428470000e+000) (39, 1.50000000000000000000e+003) (40, 1.50000000000000000000e+003) (41, 2.83804965019226070000e+000) (42, 1.50000000000000000000e+003) (43, 1.68856978416442870000e+000) (44, 1.50000000000000000000e+003) (45, 1.06512498855590820000e+000) (46, 1.50000000000000000000e+003) (47, 2.51671600341796870000e+000) (48, 1.67578506469726560000e+000) (49, 1.50000000000000000000e+003) (50, 2.85766243934631350000e-001) (51, 1.50000000000000000000e+003) (52, 1.12593293190002440000e+000) (53, 1.50000000000000000000e+003) (54, 6.26277089118957520000e-001) (55, 1.50000000000000000000e+003) (56, 1.50000000000000000000e+003) (57, 2.72560167312622070000e+000) (58, 1.50000000000000000000e+003) (59, 2.53143119812011720000e+000) (60, 1.50000000000000000000e+003) (61, 1.32233333587646480000e+000) (62, 1.50000000000000000000e+003) (63, 2.21530747413635250000e+000) (64, 2.86576241254806520000e-001) (0, 2.22817492485046390000e+000) (1, 1.50000000000000000000e+003) (2, 1.63996016979217530000e+000) (3, 1.50000000000000000000e+003) (4, 1.32953071594238280000e+000) (5, 1.50000000000000000000e+003) (6, 3.02236348390579220000e-001) (7, 1.50000000000000000000e+003) (8, 1.50000000000000000000e+003) (9, 3.19745779037475590000e-001) (10, 1.50000000000000000000e+003) (11, -3.76793622970581050000e-001) (12, 1.50000000000000000000e+003) (13, 6.55496954917907710000e-001) (14, 1.50000000000000000000e+003) (15, -6.51231467723846440000e-001) (16, 6.91950321197509770000e-001) (17, 1.50000000000000000000e+003) (18, -3.01267564296722410000e-001) (19, 1.50000000000000000000e+003) (20, 2.27880430221557620000e+000) (21, 1.50000000000000000000e+003) (22, 6.45193755626678470000e-002) (23, 1.50000000000000000000e+003) (24, 1.50000000000000000000e+003) (25, 9.98172461986541750000e-002) (26, 1.50000000000000000000e+003) (27, 2.43257045745849610000e+000) (28, 1.50000000000000000000e+003) (29, 1.23639714717864990000e+000) (30, 1.50000000000000000000e+003) (31, -1.96633088588714600000e+000) (32, 2.48281311988830570000e+000) (33, 1.50000000000000000000e+003) (34, 1.10748112201690670000e+000) (35, 1.50000000000000000000e+003) (36, 3.61679053306579590000e+000) (37, 1.50000000000000000000e+003) (38, -1.37442424893379210000e-001) (39, 1.50000000000000000000e+003) (40, 1.50000000000000000000e+003) (41, 2.31656551361083980000e+000) (42, 1.50000000000000000000e+003) (43, 2.10442280769348140000e+000) (44, 1.50000000000000000000e+003) (45, 2.04621601104736330000e+000) (46, 1.50000000000000000000e+003) (47, 1.59187114238739010000e+000) (48, 1.07606165111064910000e-001) (49, 1.50000000000000000000e+003) (50, 3.40909218788146970000e+000) (51, 1.50000000000000000000e+003) (52, 4.04427051544189450000e+000) (53, 1.50000000000000000000e+003) (54, 1.74537599086761470000e+000) (55, 1.50000000000000000000e+003) (56, 1.50000000000000000000e+003) (57, 8.96110594272613530000e-001) (58, 1.50000000000000000000e+003) (59, 7.85974562168121340000e-001) (60, 1.50000000000000000000e+003) (61, 2.71002078056335450000e+000) (62, 1.50000000000000000000e+003) (63, 3.75299870967864990000e-001) (64, -7.16979861259460450000e-001) (0, 7.91039586067199710000e-001) (1, 1.50000000000000000000e+003) (2, 1.22653031349182130000e+000) (3, 1.50000000000000000000e+003) (4, 3.36587071418762210000e-001) (5, 1.50000000000000000000e+003) (6, 3.86051565408706670000e-001) (7, 1.50000000000000000000e+003) (8, 1.50000000000000000000e+003) (9, 4.41361337900161740000e-001) (10, 1.50000000000000000000e+003) (11, 1.97423505783081050000e+000) (12, 1.50000000000000000000e+003) (13, 5.04437744617462160000e-001) (14, 1.50000000000000000000e+003) (15, 2.89616227149963380000e+000) (16, 1.30339339375495910000e-001) (17, 1.50000000000000000000e+003) (18, 1.17239105701446530000e+000) (19, 1.50000000000000000000e+003) (20, 8.07157933712005620000e-001) (21, 1.50000000000000000000e+003) (22, 3.01490187644958500000e+000) (23, 1.50000000000000000000e+003) (24, 1.50000000000000000000e+003) (25, 1.37132012844085690000e+000) (26, 1.50000000000000000000e+003) (27, 2.10098338127136230000e+000) (28, 1.50000000000000000000e+003) (29, 7.27018117904663090000e-001) (30, 1.50000000000000000000e+003) (31, 3.86508631706237790000e+000) (32, -5.60146749019622800000e-001) (33, 1.50000000000000000000e+003) (34, 1.48527264595031740000e+000) (35, 1.50000000000000000000e+003) (36, 1.23264169692993160000e+000) (37, 1.50000000000000000000e+003) (38, 1.62813425064086910000e+000) (39, 1.50000000000000000000e+003) (40, 1.50000000000000000000e+003) (41, 1.68725240230560300000e+000) (42, 1.50000000000000000000e+003) (43, 2.78996348381042480000e+000) (44, 1.50000000000000000000e+003) (45, 5.59772253036499020000e-001) (46, 1.50000000000000000000e+003) (47, 6.51480615139007570000e-001) (48, 7.70614683628082280000e-001) (49, 1.50000000000000000000e+003) (50, 2.22342205047607420000e+000) (51, 1.50000000000000000000e+003) (52, 2.05097866058349610000e+000) (53, 1.50000000000000000000e+003) (54, 5.61130702495574950000e-001) (55, 1.50000000000000000000e+003) (56, 1.50000000000000000000e+003) (57, 5.04049599170684810000e-001) (58, 1.50000000000000000000e+003) (59, 8.25252056121826170000e-001) (60, 1.50000000000000000000e+003) (61, 1.92714464664459230000e+000) (62, 1.50000000000000000000e+003) (63, -2.93993502855300900000e-001) (64, -6.56935036182403560000e-001) (0, 1.86189317703247070000e+000) (1, 1.50000000000000000000e+003) (2, 1.98977172374725340000e+000) (3, 1.50000000000000000000e+003) (4, 1.12638401985168460000e+000) (5, 1.50000000000000000000e+003) (6, 2.41947960853576660000e+000) (7, 1.50000000000000000000e+003) (8, 1.50000000000000000000e+003) (9, 2.50573563575744630000e+000) (10, 1.50000000000000000000e+003) (11, 1.38943159580230710000e+000) (12, 1.50000000000000000000e+003) (13, 9.47605788707733150000e-001) (14, 1.50000000000000000000e+003) (15, 1.23887288570404050000e+000) (16, 3.38161885738372800000e-001) (17, 1.50000000000000000000e+003) (18, 8.81267130374908450000e-001) (19, 1.50000000000000000000e+003) (20, 2.05239367485046390000e+000) (21, 1.50000000000000000000e+003) (22, 2.39289617538452150000e+000) (23, 1.50000000000000000000e+003) (24, 1.50000000000000000000e+003) (25, 2.01981472969055180000e+000) (26, 1.50000000000000000000e+003) (27, 3.24144935607910160000e+000) (28, 1.50000000000000000000e+003) (29, 2.27477812767028810000e+000) (30, 1.50000000000000000000e+003) (31, 3.43082159757614140000e-001) (32, 1.51764154434204100000e+000) (33, 1.50000000000000000000e+003) (34, 1.83375132083892820000e+000) (35, 1.50000000000000000000e+003) (36, 